552 100
sent_0 0.653639 0.088231 0.437999 0.187608 0.331402 0.191529 0.467409 -0.045222 0.370181 0.459046 -0.114851 0.108913 -0.558749 -0.106224 -0.168625 0.624833 -0.333333 0.050342 0.309466 -0.343799 0.183570 -0.062717 -0.572819 0.809801 0.010300 0.156467 0.105254 0.287491 -0.160805 0.218737 -0.168420 0.395580 0.511177 0.062645 0.266449 -0.158993 0.464511 -0.148116 0.177217 -0.154686 0.208315 0.225211 -0.106436 0.217407 -0.429803 -0.088521 -0.345238 -0.202586 -0.559818 0.722781 -0.297507 -0.351531 0.006768 0.295494 0.416929 -0.172369 0.519217 0.302643 -0.152040 0.325666 0.059588 -0.005949 -0.205349 0.686581 0.040846 -0.544516 0.709677 -0.727545 -0.583021 -0.344271 0.074271 0.102309 0.409528 0.234986 -0.253064 0.253331 0.354690 0.290152 0.114644 -0.132398 -0.664297 -0.391132 -0.267993 -0.429064 0.020721 -0.327929 0.640018 -0.247254 -0.726431 -0.409603 -0.428474 -0.049311 0.049956 0.474553 -0.335503 0.516024 0.268338 0.058795 0.031137 0.176437
sent_1 0.072660 0.266724 0.324970 -0.205958 -0.345583 0.067408 -0.249755 -0.411615 0.128170 -0.182182 -0.050058 -0.147891 -0.449826 0.682152 -0.462368 -0.550975 -1.623221 0.648019 -1.071477 -0.536169 -0.324444 0.097851 -0.479535 -0.410629 0.553228 -0.243131 -0.339273 0.645400 -0.388958 0.422782 0.405893 0.409175 0.401202 0.105069 0.330572 1.392053 0.112691 -0.324072 0.717866 -0.147058 -0.130474 0.194324 0.052544 -0.214138 -0.060171 0.208987 -0.663976 -0.030355 0.211925 0.411599 -0.374386 0.198772 -0.457486 1.184388 -0.458187 -0.080859 1.549345 -0.466592 0.450585 0.190954 0.167103 0.532177 0.159546 -0.216067 -0.086533 -0.280456 -0.150781 -0.114222 -0.608659 0.271532 0.320885 0.112071 0.234423 0.763026 -0.040134 -0.250176 0.184975 -0.456101 0.306282 -0.633609 0.053009 0.125701 0.036260 -0.937698 -0.435423 -0.057800 0.473751 0.476261 -0.791198 -0.088262 -0.022119 0.013128 0.341381 0.529749 0.059608 -0.388162 0.967809 -0.059534 -1.118358 0.645940
sent_2 1.108111 0.491581 -0.667971 -0.370693 0.533730 -0.170377 0.677656 -0.566396 0.293559 -0.244741 -0.113017 0.479724 -0.126577 0.093966 -0.117320 1.064248 -0.017683 -0.620576 -0.944609 0.394134 -0.091389 -0.675112 -0.764135 0.249706 0.585717 0.471289 0.241551 1.437353 -0.209594 -0.194858 -0.855352 -0.393890 1.041409 0.087432 -0.582809 -0.674495 0.395328 0.395079 0.041504 0.189263 0.405722 -1.005251 -0.869427 1.065923 0.031311 0.032182 0.120879 0.122022 -0.077290 -0.162047 -0.452999 -0.739066 0.447611 0.247480 0.405042 -0.844632 0.751143 0.598857 0.740867 0.659172 -0.181871 -0.246596 1.192406 -0.014465 0.460078 0.169790 -0.320867 -0.745503 -0.056328 -0.614843 -0.251867 -0.755224 0.379678 0.897258 -0.510237 0.272053 0.171584 -0.145052 -0.024730 -0.888824 -0.667492 -0.178279 -0.802985 -0.903046 -0.707906 -0.137152 0.053964 -0.253847 -0.268214 0.228328 -0.281523 -0.132755 -0.369931 -0.333931 0.145826 -0.169534 0.100242 0.480473 -0.642449 -0.325796
sent_3 -0.108330 -0.204314 -0.262058 -0.822162 -0.032838 -0.201407 -0.059346 0.031379 0.490039 0.131224 -0.125751 -0.450854 -0.030463 -0.207391 0.073670 0.119053 0.533846 -0.271252 -0.015299 0.116040 0.150833 0.188568 -0.502070 0.390877 0.009517 -0.442900 0.433918 -0.555243 -0.102459 0.242531 0.019569 -0.371594 -0.185360 0.432399 0.117408 0.352812 0.548429 -0.268346 0.645900 -0.289232 -0.176747 -0.299714 -0.192364 0.571969 -0.169701 -0.579018 -0.391808 0.742150 -0.018951 0.189478 0.119531 -0.545031 0.490256 0.031558 -0.952336 0.026841 0.835600 -0.037738 -0.152492 -0.573447 -0.071049 -0.194474 0.199012 -0.322258 0.140578 0.483629 0.046410 -0.192750 0.557527 -0.117566 0.893617 -0.001196 -0.626888 0.470722 -0.827639 0.455335 0.850997 0.149190 0.370356 -0.511438 -0.618049 -0.333399 -0.541757 -0.179569 0.698126 -0.743009 -0.014616 -0.024366 -0.779532 -0.655206 1.040717 -0.003679 0.818433 -0.396642 -0.795210 -0.333439 0.997578 0.316933 0.122909 0.163256
sent_4 -0.229786 -0.175502 -0.310678 -0.585075 -0.210347 0.892349 0.457491 0.137586 0.018260 -0.074171 -0.179847 0.664633 -0.211145 0.139880 -0.233786 0.385493 -0.220757 0.033871 -0.712990 0.208663 -0.307539 -0.076491 -0.436312 0.613649 0.459634 0.076474 0.145531 0.290758 -0.388541 -0.053655 0.145439 0.154669 -0.159297 -0.322210 0.162375 0.248180 0.221577 0.424928 0.174757 0.353568 0.276151 -0.443561 -0.474788 0.478737 0.338736 -0.022673 0.254907 -0.370010 -0.723560 0.476778 -0.221329 -0.279364 0.290785 0.199127 0.204014 -0.346562 0.890436 -0.219590 -0.188835 0.329089 -0.297343 -0.150886 0.390696 -0.051242 0.419558 0.248497 -0.214119 -0.403637 -0.109499 -0.732411 0.242575 -0.106380 0.120421 0.347625 -0.796237 0.111249 0.895260 -0.869702 -0.243182 0.016401 -0.131158 -0.210500 -0.489222 -0.504223 0.306453 0.373669 0.025695 -0.649634 -0.486652 -0.165360 -0.262034 0.388922 0.381658 0.529658 0.406053 -0.450875 0.036242 -0.024001 0.056351 0.032595
sent_5 0.532595 -0.027307 0.058277 -1.301286 -0.251414 0.045465 0.442878 -0.166224 -0.088737 0.362256 -0.497718 0.422038 -0.363163 0.127707 -0.311670 0.126973 -1.218481 0.830694 -0.342544 -0.677754 -0.455086 -0.325974 0.156005 0.074325 0.483609 0.167630 0.383918 0.060758 -0.056758 1.833176 0.514200 0.388909 0.376192 0.308113 -0.188821 0.309873 0.382858 0.010219 0.218602 0.287395 0.344271 -0.638654 0.491892 -0.322468 0.309110 -0.777374 -0.558343 -0.384776 -0.064442 0.159288 -0.064395 -0.482771 0.075052 0.379305 -0.003903 0.236620 0.275641 -0.464518 0.192195 0.066127 0.005864 -0.058272 0.571852 -0.584447 0.075191 -0.184023 -0.459014 0.666860 -0.258142 0.411494 -0.055199 -0.347321 -0.862616 0.266754 -0.352052 0.062032 -0.201393 -0.501061 -0.207492 0.719154 1.010894 -0.651212 -0.089986 -0.223841 0.075491 -0.103185 0.232158 -0.587651 0.218336 0.098216 -0.098744 -0.450437 0.331746 0.407584 -0.000076 1.195011 0.931628 0.209419 -0.741312 -0.054287
sent_6 0.233972 0.609318 -0.849441 -0.709709 0.008631 0.258957 0.647573 0.335573 1.193586 0.234902 0.419030 -0.481954 -0.370402 0.936370 -0.104982 0.752803 0.044714 -0.088161 -0.652793 -0.715295 -0.155100 -0.317875 -0.103529 -0.038717 0.215814 -0.126984 0.108510 0.024370 0.212945 -0.798106 0.630554 0.647504 0.008129 -0.228733 -0.057968 0.094057 -0.300696 -0.190046 0.166578 0.786223 0.647289 -0.652370 -1.045849 0.461264 -0.025530 -0.314828 0.431555 -0.041616 0.194751 0.232643 0.385241 -0.453497 0.264561 0.608243 -0.260050 -0.066420 0.594925 -0.131438 0.426914 1.225093 0.289861 -0.220066 0.831947 0.264689 0.055711 0.060744 0.386976 -0.122074 0.130279 -0.066343 0.281717 -0.227931 0.384921 -0.156067 -0.424351 1.064848 0.547353 -0.139053 0.254796 -0.273852 0.229898 -0.441222 -0.058952 -0.375095 -0.192473 -0.052772 0.308764 0.792886 -0.628490 -0.226015 -0.021064 0.488330 0.316471 0.896909 -0.183386 -0.044859 0.942074 0.247636 -0.387807 0.379549
sent_7 0.170342 0.431851 -0.104158 -1.440466 -0.410540 0.393523 0.735768 0.253157 0.730470 -0.192037 -0.998199 -0.025270 0.314930 -0.764524 -0.732170 -0.072571 -0.434221 0.605018 -0.861711 -0.886831 -0.576036 -0.205925 -0.099157 0.715884 0.673892 -0.115442 0.522137 0.483339 0.035326 0.974654 -0.012379 -0.180900 0.564419 -0.490985 0.110006 -0.187147 -0.422389 -0.199044 0.353192 0.417434 0.821804 0.203668 -0.279008 0.011373 -0.007166 -0.482311 0.092380 -0.324308 0.289333 0.355440 -0.279412 -0.096927 0.162592 0.650094 -0.127370 -0.147587 0.552227 -0.287135 0.199348 0.375333 0.493458 -0.532852 0.961680 0.099166 -0.404641 -0.419641 -0.031997 -0.048321 0.299938 -0.614506 0.633125 -0.037535 0.031459 0.100647 -0.358523 0.392531 0.590155 -0.690792 0.121171 0.039986 0.239404 0.613183 -0.076074 -0.699739 -0.819003 0.129610 0.053611 -0.543453 -0.027180 -0.730246 -0.322262 0.180929 0.870377 0.539728 -0.887020 0.050373 0.393767 -0.011853 -0.276679 0.020466
sent_8 0.089034 0.358019 -0.276564 -1.180468 -0.009832 0.571941 0.256416 0.040914 -0.154781 -0.372763 -0.399227 -0.102070 -0.096985 -0.344096 -0.165989 0.727727 -0.150645 -0.009888 0.013591 -0.232677 -0.555985 -0.652635 -0.101837 0.400653 -0.022882 0.244516 0.451866 0.761759 -0.579780 0.530520 0.390663 -0.311103 -0.051215 0.095059 0.070681 -0.227618 -0.708553 0.353501 0.686239 0.247488 0.493833 -0.836932 -0.334605 -0.412145 -0.828960 0.237661 -0.406825 -0.217112 0.347014 -0.172781 -0.274825 0.390456 0.715234 -0.130131 -0.144062 -0.560482 0.759569 -0.693226 0.559290 0.033600 -0.122923 -0.110869 0.984258 0.901378 0.290526 -0.091746 -0.192809 -0.372581 -0.531281 -0.121651 -0.091223 0.201469 0.611273 0.485486 -0.669101 0.294957 0.553564 0.088701 -0.430709 0.272224 -0.227099 -0.377197 0.066898 -0.701411 0.358338 -0.518247 0.532494 0.130970 0.284653 -0.046622 -0.244003 -0.990308 0.027767 0.845798 -0.361472 -0.317061 0.057561 0.584479 -0.093691 1.041405
sent_9 -0.237352 -0.282854 -0.395056 -0.673171 0.390293 0.606132 0.016581 -0.050703 -0.475767 -0.851827 -0.509158 -0.248487 0.306139 -1.082463 -0.455509 0.328859 -0.515268 0.292848 -0.352798 0.204854 -0.353390 0.318484 0.112001 0.481073 0.352950 -0.021320 0.381467 0.104126 -0.600419 0.876338 0.058694 -0.319232 0.726939 -0.169652 1.090827 -0.707440 0.412243 0.182514 -0.254397 0.144012 0.851665 -0.378426 -1.243775 0.407419 0.153205 0.062197 0.257542 -0.228216 -0.027995 0.366356 -0.600242 -0.785090 0.839927 0.647498 -0.174822 -0.231256 -0.193262 -0.753363 0.124418 0.572429 -0.095400 -0.510510 -0.205548 -0.119508 0.481216 0.383210 -0.016765 -0.521003 -0.273289 -0.336977 0.063266 0.116948 -0.048539 0.824884 0.193556 0.179231 -0.446898 -0.995995 -0.372212 0.467723 -0.955915 -0.149210 0.008211 -1.206068 0.287542 -0.338207 0.418557 -0.769403 0.387430 -0.127888 0.191509 -0.184408 0.293260 1.201720 -0.128950 -0.978097 -0.098531 0.941248 -0.016092 0.405916
sent_10 -0.126263 0.115815 -0.131559 -0.619795 0.856396 0.306053 0.330313 0.080251 0.613072 0.270823 0.306858 -0.403056 -0.424489 -0.837415 0.097201 -0.221343 0.115646 -0.176230 -0.111648 0.141588 -0.765284 0.464538 -0.129549 0.180332 -0.084354 0.205785 -0.232047 0.696218 0.210576 0.810128 0.222776 0.416549 0.381533 -0.035817 -0.492893 -0.313909 -1.172039 0.607537 0.625139 -0.098034 0.438859 -0.751435 -0.008894 -0.203459 0.308070 0.037792 0.176054 -0.259365 -0.446834 -0.286711 0.108763 0.590548 -0.195706 0.206837 -0.128375 -0.353405 0.701396 -0.230851 0.103912 -0.670170 1.330392 -0.216880 0.195601 0.017656 -0.086643 0.260838 0.135492 -0.140621 0.681796 0.313564 0.379904 0.017584 -0.127485 0.119083 0.024143 0.739729 0.671372 0.122340 0.252140 -0.380095 -0.297248 0.362256 0.296736 0.028074 0.526530 -0.263107 1.214117 -0.036729 -0.162813 -1.344825 -0.863853 -1.326660 0.618086 0.606387 0.439075 -0.623964 0.702670 -0.012750 0.040355 0.078987
sent_11 0.817640 -0.345656 0.550438 -1.047924 0.674418 -0.290360 0.353818 0.407828 0.452160 -0.249476 0.417388 -0.474586 -0.042548 -0.290968 -0.349075 0.079038 0.303696 0.065843 -0.359284 -0.216935 -0.288976 0.071311 -0.609643 0.510427 -0.013171 0.189840 -0.033627 0.400831 -0.842656 0.536482 0.433739 0.113229 0.327110 -0.011841 0.583842 -0.552490 -0.216863 0.036736 0.212094 0.199690 0.476683 0.748196 -0.583499 0.482685 0.030269 0.252697 0.108596 -0.568900 -0.586578 -0.026227 -0.205517 -0.261832 -0.700193 0.132942 -0.327290 -0.174841 0.454136 -0.091432 0.501268 0.237325 0.379980 -0.619877 -0.323865 -0.303915 0.121255 0.065415 0.436301 0.324545 0.011677 -0.457511 -0.135438 -0.607334 -0.169001 0.451753 0.040393 -0.363232 -0.399462 -0.491096 0.034575 0.421685 -0.128529 -0.444141 -0.661176 -0.425414 0.383326 -0.006985 1.035721 -0.461243 0.158791 -0.075618 -0.543078 0.461337 1.200393 0.315275 -0.765275 -0.305402 0.554507 0.316051 0.097821 0.426226
sent_12 0.275801 0.363406 -0.350972 -1.208687 -0.354624 0.741107 0.051991 0.535890 -0.193095 -0.500604 -0.618888 -0.286416 -0.009234 -0.396101 -0.221211 -0.050864 -0.945140 1.241552 -0.313816 0.006142 -1.137468 -0.451549 0.240841 0.229877 0.489258 0.860745 0.098914 0.276161 0.141332 0.762970 0.611226 0.117890 -0.429412 -0.211889 -0.153444 1.199997 -0.606028 0.052161 0.469268 0.215581 0.756903 -0.763746 -0.084010 -0.046095 -0.333388 -0.651811 -0.068065 -0.564719 0.126358 -0.019264 -0.353231 -0.269811 0.037692 0.019230 -0.417638 0.479341 0.563428 -1.215419 -0.787569 0.624006 0.139414 -0.502537 0.524014 -0.010936 0.694696 -0.042998 0.297164 -0.009724 0.323285 -0.057173 0.161514 -0.721294 -0.020497 -0.180547 0.102100 0.556700 0.752419 -0.968363 -0.364792 1.094236 0.590201 0.647637 0.109166 -0.366069 -0.103860 -0.179404 -0.001981 -0.796232 0.331197 0.116477 -0.291759 -0.035852 0.521576 0.595636 -0.319599 0.000924 0.887216 0.185296 -0.552279 -0.075390
sent_13 0.326821 -0.206370 -0.261960 -0.144948 0.555835 0.316396 -0.143304 0.211379 0.486143 -0.489451 -0.609233 0.005417 -0.432059 -0.342085 0.734413 0.204542 -1.248406 0.893599 -1.478073 -0.006732 -0.454106 -0.360109 0.985393 0.741386 0.354628 0.294123 -0.255623 0.080440 -0.575325 0.002354 0.987802 0.274096 0.057822 0.452113 0.069935 -0.166665 -0.296928 -0.083047 0.496556 -0.393532 0.254204 -0.094677 -0.390736 0.022578 -0.224697 -0.129468 -0.357008 0.161240 -0.087799 0.458997 -0.493005 -0.359532 -0.318703 -0.587415 0.086793 0.523448 0.745802 -0.003761 -0.517128 -0.133966 0.373979 -0.232541 0.239559 -0.518289 0.612442 0.449199 -0.325830 0.146285 -0.131956 -0.042011 -0.012701 0.378296 -0.692066 0.551471 0.508410 0.575238 0.967314 -0.419139 -0.328545 0.917993 -0.452999 0.432243 -0.619902 -0.023527 0.490492 -0.432213 -0.284827 -0.625459 -0.530071 -0.708694 0.331893 -0.496462 0.277813 0.067507 -0.594629 0.186544 0.048311 0.118579 -0.468872 0.224597
sent_14 0.138974 -0.291290 -0.136747 0.059023 -0.269629 -0.468195 0.595638 -0.139192 0.851771 0.872287 -0.071689 -0.880126 -0.611031 -0.709911 -0.838221 0.477284 -0.055017 0.048774 -0.221415 -1.207784 0.225882 -0.437341 0.609095 -1.091003 0.307284 0.260675 -0.426575 0.467197 -0.316448 0.559668 -0.091294 0.404176 0.310955 -0.375109 0.414888 0.375152 0.227443 -0.386639 0.347856 -0.064992 -0.422624 -0.522658 -0.328773 0.082408 -0.087587 -0.157421 -0.016403 -0.690461 -0.893177 0.124103 0.447189 -0.302878 0.606779 0.742388 0.023703 -0.641648 0.543526 -0.228853 0.497821 0.576131 -0.387180 -0.440332 -0.169588 -0.556890 0.645197 -0.290476 -0.122200 -1.046094 -0.521729 0.332700 0.589038 0.698987 0.735331 0.349093 -0.575047 0.208373 0.299455 -0.713211 0.181865 0.264819 -0.424012 0.340014 -0.354445 0.245539 -0.343567 -0.180740 -0.448643 -0.772509 -0.325154 -0.145946 0.277932 -0.342276 0.195749 0.535642 -0.317672 -0.170225 0.424056 -0.113616 -0.377346 1.357424
sent_15 0.062997 -0.703246 0.244063 -1.164303 0.104728 0.279953 0.489686 0.195893 0.800404 -0.210546 -0.703818 0.760504 -0.638618 -0.380728 -0.096134 0.058997 0.175786 0.576846 0.478727 0.086311 -0.377735 -0.549145 -0.275574 -0.115585 0.452402 0.138197 0.459808 -0.225713 -0.306611 0.152393 0.089914 -0.175619 0.264173 0.067226 -0.456811 -0.416924 -0.592545 0.320120 -0.662193 -0.169345 0.705415 0.158523 -0.232245 0.070684 -0.601123 0.076425 -0.440214 -0.234371 0.018177 0.522679 -0.219670 0.094267 -0.206397 0.325580 -0.666166 -0.018062 0.002969 -0.838296 0.356258 0.251974 0.231923 -0.359606 -0.055190 1.027529 0.120481 0.307064 0.337822 -0.493910 -1.061550 -0.396659 -0.129542 -0.237062 0.083019 0.669323 -0.687847 0.910558 -0.102382 0.583073 0.104827 0.697119 0.484430 0.404348 -0.482605 -0.161711 0.366438 0.097139 0.816937 -0.170720 -0.795948 -1.137937 -0.481489 0.103805 0.626304 0.489271 -0.396914 0.394092 0.076373 -0.098167 -0.725502 0.545039
sent_16 0.546560 -0.033220 0.284326 -1.487818 -0.244825 0.335658 0.812965 0.332256 0.582287 0.816245 -1.015761 0.493266 0.170568 0.028370 -0.447966 -0.651710 -1.200650 0.100311 -0.213856 -0.646876 -0.123948 -0.080835 -0.283211 0.666827 0.218190 0.552291 -0.017253 0.369411 -0.314318 1.169248 0.038663 0.531991 0.390400 0.517496 0.706811 -0.164536 0.044056 -0.250779 -0.112317 -0.279494 0.483075 -0.902049 0.171241 -0.082655 0.433244 -0.087830 -0.323366 -0.059842 -0.304608 0.114837 -0.021323 -0.671728 0.084462 0.056265 -0.230141 -0.157474 0.477486 -1.400725 0.479389 0.280278 -0.699651 -0.554505 0.035653 0.050747 -0.171199 0.338166 -0.655995 0.550824 -0.477553 -0.121997 0.511147 0.254215 -0.104534 0.137380 -0.203057 0.040417 -0.107149 0.045887 -0.323002 0.215947 0.233441 -0.419805 0.046347 -0.463126 0.402857 -0.836782 0.333268 -0.512109 -0.515719 0.022259 -0.850060 -0.276753 0.135211 0.815203 -0.027841 -0.074248 0.514649 -0.211504 -0.396284 0.238852
sent_17 0.162833 0.012980 0.255257 -0.350353 -0.477087 -0.438184 0.239405 0.571403 0.921779 0.564340 0.467719 0.032143 0.378111 0.079140 -0.282641 0.699906 0.487136 0.162353 -0.403928 -0.436778 0.079853 -0.563503 -0.186204 0.480583 -0.080443 0.215324 0.114159 0.981585 0.351832 0.271762 0.175126 0.592427 0.307719 -0.384350 0.348373 0.340272 0.012812 0.355131 0.089427 0.033312 -1.531635 -0.705392 0.160686 0.023394 -0.512931 -0.648009 -0.696035 0.476744 -0.317652 -0.055680 -0.785228 -0.415829 0.239088 0.399950 0.123647 0.070705 1.011091 -0.334564 0.603463 0.729003 0.804332 -0.219186 0.397602 0.182454 -0.026966 0.290695 -0.527097 -0.868315 -0.486012 -0.140960 0.128393 0.023129 0.724900 0.067617 -0.183027 1.038603 0.277572 -0.528027 -0.610025 0.318663 0.015720 -0.831619 -0.237918 -0.796179 -0.109594 -0.293843 0.264423 -0.570490 -0.411477 -0.559377 -0.235222 -0.067543 -0.928419 -0.364813 0.085540 1.341635 0.708618 0.191829 0.851350 0.397075
sent_18 0.046692 -0.511285 -0.277512 -0.349492 0.170067 0.066392 0.699958 0.406485 0.283304 0.226451 -0.575117 0.397689 -0.680145 0.052671 -0.406072 0.129455 -1.132447 0.349932 -0.819180 -0.832644 -0.184298 0.066218 0.158802 0.175126 0.705159 0.457148 -0.405239 0.358010 -0.490082 0.275195 0.186356 0.996964 -0.139600 0.580795 -0.813795 0.681418 -0.473482 0.154182 -0.031037 -0.461500 -0.381716 -1.006498 0.049855 -0.650989 0.126345 -0.230186 -0.247189 0.409854 -0.012655 -0.207408 0.254374 -0.167117 0.191476 -0.193653 -0.310459 0.509266 0.741970 -0.816852 -0.526786 0.525804 0.683275 -0.740080 0.761048 -0.652048 0.326296 -0.174029 0.212237 0.310025 -0.404373 -0.050598 0.034955 -0.008039 0.099965 0.279273 0.237772 0.888215 0.113922 -0.367723 -0.325868 -0.065115 0.407074 0.334619 -0.301444 -0.050842 0.084491 -0.079250 0.502561 -0.028780 -0.284294 -0.254762 -0.310823 -0.826703 0.090734 -0.040065 -0.012438 0.305478 0.874087 0.143970 -0.159048 -0.301485
sent_19 0.671189 -0.374651 -0.581207 -0.177738 -0.079681 -0.069447 0.440764 -0.815918 -0.473289 -0.039669 0.122056 0.919638 -0.327219 -0.458044 0.104759 1.354936 -0.112635 0.605545 -0.049306 -0.295520 0.068505 -0.843996 -0.693163 0.988331 -0.125599 0.137075 -0.034458 1.246393 0.076430 0.976027 -0.427615 -0.552328 -0.015158 -0.124799 0.278068 -0.532379 0.211874 0.345951 0.195538 -0.053481 -0.328875 -0.121261 0.432201 -0.137156 -0.369188 0.116841 0.363971 -0.167774 -0.242187 0.608940 0.362645 -0.621085 -0.228783 -0.134927 -0.319317 -0.136772 0.303612 0.948356 -0.360435 0.815519 -0.889697 0.310800 0.103281 0.692885 0.369140 -0.476909 0.200598 -0.680921 -1.130121 -0.815356 -0.080237 -0.422335 0.300285 0.882230 1.116716 -0.634536 0.236492 -0.664426 0.417718 -0.034415 -0.982357 -1.003427 -1.181067 -0.233954 -0.170087 -0.761611 -0.016340 0.222288 -0.589305 0.280559 0.864543 0.847711 0.749793 -0.319796 -0.430274 -0.370293 0.042726 0.801174 0.160803 0.076310
sent_20 0.859661 -0.066771 0.036240 -0.042461 0.364107 -0.340370 0.022182 0.493360 0.090206 0.118188 0.818945 -0.901901 0.108925 -0.539969 -0.774934 0.590983 -0.055464 0.772038 -0.545218 0.052273 -1.016676 0.496915 -0.206006 0.723616 0.102648 -0.101686 -0.624681 0.095365 -0.376135 0.173189 0.718973 -0.377664 0.883083 0.176481 0.635220 -0.237149 -0.487848 -0.687263 0.481441 -0.065744 0.202295 0.068780 -0.362778 0.617272 -0.167131 0.646231 0.353715 -0.309393 -0.606279 0.397589 -0.469824 0.768156 -0.197828 0.483756 0.165839 -0.716979 0.022077 0.450131 -0.310886 -0.450787 0.288560 -0.488053 -0.962291 0.291020 -0.429328 -0.067480 0.219443 -0.869325 0.240883 -0.710006 0.499564 -0.246540 0.186000 -0.324524 -0.571637 -0.360816 1.372325 0.329369 0.030266 -0.459624 -0.161026 -0.602560 -0.095734 0.393114 0.614944 -0.487683 1.388719 0.148242 -0.124227 -0.055601 -0.057730 -0.287277 1.178014 0.729812 0.724887 -0.019957 0.190293 0.361001 -0.717722 0.379698
sent_21 -0.033583 0.256608 0.003057 -0.188798 -0.261293 -0.300442 -0.047260 0.053583 -0.047650 0.431424 -0.104937 0.465135 -0.494869 -0.397435 -0.868109 0.139383 -0.019990 0.186386 -0.876871 -0.301390 -0.522476 -0.682002 0.120155 0.128801 0.449187 0.440885 0.020948 -0.284926 -0.469275 0.692448 0.023018 0.510233 0.104467 -0.395231 -0.043530 -0.472351 0.534773 -0.378641 0.190081 0.023267 0.321230 0.111586 -0.686632 -0.185023 -0.143611 0.018318 -0.941495 0.153225 -0.070023 -0.457291 -0.437381 -0.078775 0.417917 -0.283016 -0.100714 -0.274234 0.541000 -0.608147 -0.193418 0.726967 -0.053556 -0.164310 -0.464769 -0.479052 0.332167 0.066592 0.080095 0.106025 -0.130212 0.138328 -0.206403 -0.134705 0.397204 -0.015508 -0.417356 0.147029 0.388578 -0.749361 -0.002436 -0.412725 0.359375 -0.309426 -0.846788 -0.616439 0.102659 0.531665 0.651266 0.268344 0.010286 0.174554 0.547938 -0.275694 -0.264919 0.562783 0.133474 0.298418 0.552640 0.221050 0.174072 -0.023834
sent_22 0.290866 0.388208 -0.480893 -0.490121 0.191116 0.195472 0.460075 -0.523385 0.760253 0.270466 0.640785 -0.376828 0.853748 -0.297585 -0.606560 0.208077 -0.785896 0.801656 -0.799603 0.024614 -0.494322 0.151377 -0.787904 0.152560 0.557074 -0.217820 0.145027 -0.279684 -0.878327 0.582226 -0.655358 -0.254523 0.972506 0.187754 0.117357 -0.043655 0.441855 -0.658633 0.247960 0.348947 0.700903 0.767980 -0.224858 -0.646615 -0.424812 -0.429268 0.374394 0.461484 -0.521563 -0.394520 -0.377646 -1.272212 0.142602 -0.118321 -0.742309 -0.283246 0.742631 -0.522246 0.068874 1.133031 -0.325464 0.020378 -0.417058 0.328449 0.623589 -0.326352 0.288616 -0.483477 -0.416526 -0.763761 0.458737 -0.355657 0.458662 0.582430 0.125067 0.749788 0.624670 -0.468363 -0.275629 0.134667 -0.300375 0.107034 -0.196126 -0.655603 0.657198 -0.288860 0.227330 -0.449426 -0.335364 -0.504921 -0.407499 -0.029815 0.207037 0.543004 -0.496724 -0.389003 0.333906 0.657076 -0.714918 0.248770
sent_23 0.211816 0.052803 -0.040953 -0.437726 0.065977 0.027817 0.498058 0.224293 0.756294 0.096584 0.147222 -0.846405 -0.362164 -0.095862 -0.486682 0.957867 -0.002053 -0.501335 0.002502 -0.540978 -0.454211 -0.187563 -0.264969 0.253701 0.173538 0.176755 -0.217025 0.724914 -0.286675 0.730844 0.899842 0.020655 0.811707 -0.221298 0.310807 -0.560003 -0.001725 0.136404 -0.118031 -0.143318 0.441684 -0.235696 -0.403155 0.720435 -0.167034 0.412018 -0.490995 -0.041330 -0.405005 -0.002454 0.060629 0.533006 -0.204555 0.716056 -0.094696 -0.673199 -0.150296 -0.270348 0.397810 0.386429 -0.448946 -0.740911 0.597875 0.107921 0.353222 -0.545872 0.290320 -0.192809 -0.604208 -0.392306 0.229805 -0.165363 -0.046682 0.832480 -0.880420 -0.464624 0.098257 0.413861 0.410942 0.240603 -0.301249 -0.030459 -0.445686 -0.879576 0.101831 0.076319 0.615597 -0.600784 -0.195806 -0.343370 -0.161887 0.244758 0.601022 0.088981 -0.384027 -0.115255 0.337674 0.754241 -0.406936 1.410061
sent_24 0.213429 -0.314442 0.321485 -0.591899 0.353635 -0.023231 -0.193607 0.454164 -0.412231 -0.132991 -0.058890 -0.533298 -0.300226 -0.101550 -0.477255 0.052102 -0.447829 0.313649 -0.735876 0.146315 -0.952814 0.041647 -0.245518 0.578831 -0.111665 -0.285321 -0.593387 -0.229677 0.078713 0.334111 0.590259 0.192950 0.061588 0.251559 0.204146 0.490841 -0.158717 0.147671 0.058368 -0.214884 0.145125 -0.533315 0.289428 -0.698784 -0.157630 0.137367 0.168149 -0.183332 -0.372096 -0.031091 -0.614327 0.546996 -0.047323 -0.082456 0.119635 -0.759565 -0.250226 0.244410 -0.515569 -0.239826 -0.206602 0.363790 -0.263218 0.216428 0.071701 0.052930 0.418703 0.332172 -0.753738 -0.543366 0.285889 0.140497 0.066415 0.320466 -0.181893 0.131087 0.620819 0.088858 0.213338 -0.091162 -0.378370 -0.390368 -0.498835 -0.203371 0.586473 -0.331361 0.768191 0.089717 -0.172271 -0.495414 0.547580 -0.325221 0.112680 0.651913 0.441522 0.084092 0.677275 0.237728 -0.578265 -0.254194
sent_25 0.683746 0.626875 0.031660 -0.175719 0.480275 -0.450267 -0.086201 0.924621 1.133783 0.084367 0.537872 -0.327164 -0.526452 -0.010202 -0.604190 0.424596 -0.279940 0.645882 -0.813719 0.147814 -1.143062 0.528316 -0.059194 0.446622 0.170858 -0.562355 -0.371661 0.253815 0.060925 0.505388 0.500246 -0.336521 0.808665 0.155235 -0.054245 0.042898 -0.492771 -0.523376 0.202649 0.061870 0.217025 0.572249 -0.218178 0.396821 0.070658 0.662633 0.682664 0.154847 -0.563656 0.561214 -0.245930 -0.313248 0.361951 0.178199 0.247750 -0.891948 0.572200 -0.105656 -0.176010 -0.190399 0.411446 -0.853978 -0.809338 0.111955 -0.569527 -0.360774 -0.091378 -0.376731 -0.157393 -0.447280 -0.315159 -0.024513 0.272079 -0.397618 -0.674642 -0.194073 0.802176 0.597498 0.292938 -0.580667 -0.548183 -0.409575 0.361563 0.351045 0.453597 -0.052988 0.768732 -0.153580 0.350858 -0.602085 -0.040780 0.147950 0.878902 0.723823 0.064240 -0.052357 0.203024 0.521576 -0.420511 0.860212
sent_26 0.102488 0.096749 0.253124 -0.902796 -0.201448 -0.201717 0.542797 -0.395088 0.609972 0.287863 -0.173831 0.488403 -0.071785 0.375529 -0.098916 0.516922 -0.275855 -0.320126 0.201677 -0.577760 -0.086574 -0.746599 -0.594974 0.137432 0.156051 -0.076358 -0.221767 0.381094 -0.054409 0.336291 0.144418 -0.152484 0.212706 0.311086 0.246604 0.072552 -0.263974 0.731230 0.245489 0.339040 -0.421731 -0.163050 -0.093034 -0.069748 0.241344 0.374238 0.215634 0.479582 0.022126 0.045094 0.217360 -0.215892 0.677294 0.421427 0.105825 0.132821 0.304035 0.030153 0.328415 0.372557 -0.316214 -0.128534 0.420708 -0.159669 0.236425 -0.356077 0.015322 -0.614449 -0.369255 -0.548646 0.626731 -0.273976 0.208476 0.454561 -0.230574 0.274506 -0.371004 -0.657247 -0.093960 0.118527 -0.210822 -0.103031 -0.250738 -0.627547 0.707250 0.387156 -0.307330 0.164080 -0.272647 -0.409456 0.277207 0.362558 0.052439 0.249404 0.155262 -0.749198 -0.039816 0.021792 0.171821 0.794027
sent_27 0.325830 0.761788 -0.217728 -0.493888 -0.184386 -0.073811 0.072965 -0.345363 0.274884 0.165334 0.042119 -0.167377 -0.805424 0.133341 0.604582 0.613728 0.361499 0.476935 0.061193 -0.032045 -0.151789 -0.771701 -0.047369 0.577256 0.233653 -0.059858 -0.085600 -0.045220 0.265270 -0.470005 0.798154 0.185283 0.065817 0.817288 -0.027978 -0.238663 -0.282939 -0.126024 -0.475211 0.483665 -0.301356 -0.165004 0.165811 0.003541 0.408857 0.056343 -0.231688 0.355081 -1.033121 -0.451672 -0.076126 -0.419194 0.528326 0.323391 0.224912 -0.233457 0.663141 0.492883 0.843882 0.338226 0.555548 -0.241392 0.047946 0.113542 0.031275 -0.419829 -0.260976 -0.225224 -0.352916 -0.398045 0.415391 0.230021 0.481030 0.367108 0.123901 0.548024 0.020890 -0.128568 -0.723521 -0.461719 -0.258683 -0.019052 -0.586354 -0.124501 0.003822 0.250932 -0.144591 0.279839 0.196287 -0.052533 -0.193255 0.228491 0.481566 -0.010686 -0.801708 -0.348597 0.203572 0.717908 -0.318304 0.164177
sent_28 0.188172 -0.091735 -0.001981 -0.063129 -0.250044 -0.059519 0.303524 0.248932 0.575990 -0.642795 0.010920 -0.036126 -0.567767 -0.114115 -0.504228 0.298161 0.219148 0.243019 0.098007 -0.090947 -0.393095 -0.101840 -0.217386 -0.138130 0.462957 -0.280492 -0.493444 0.370673 -0.231686 0.143332 0.158263 0.073132 -0.055942 -0.297220 0.096813 -0.446729 -0.306360 0.464107 0.338746 0.357907 0.403354 -0.176500 -0.263203 0.420254 -0.225620 -0.060783 0.215165 -0.640336 0.255153 0.147474 -0.147193 -0.025567 0.211467 0.396836 -0.146063 0.038837 0.284157 -0.277873 -0.076090 0.025112 -0.258889 -0.340310 0.316734 0.086567 0.328555 0.048785 0.401254 -0.368255 0.277233 -0.075146 -0.195835 -0.486860 -0.003948 -0.193391 -0.234723 0.187166 0.277137 -0.519048 -0.106438 0.115200 -0.227545 0.345456 -0.707982 -0.428835 0.591234 -0.161069 0.250615 -0.219234 -0.334991 -0.547495 0.291316 -0.284069 0.115623 0.327887 -0.195152 -0.594284 -0.015729 0.211491 0.193695 0.109379
sent_29 -0.133486 -0.070649 0.027961 -0.903763 0.076388 0.723229 0.529398 0.292561 -0.207291 -0.275723 -0.824897 0.289503 -0.515997 -0.068230 0.443858 0.145370 -1.123905 0.759130 -0.894489 -0.546142 -0.917306 0.181921 0.485720 0.441238 -0.194369 0.570198 -0.028690 0.712790 -0.583684 1.347705 0.396975 -0.151022 -0.695457 0.247848 0.014165 1.161846 -0.170337 -0.111878 -0.105872 -0.488235 0.748401 -0.481327 0.027921 -0.807837 -0.270883 -1.287090 -0.176715 -0.355177 -0.278374 0.583647 -0.347969 -0.033802 0.218633 -0.603313 -0.243010 -0.177880 0.336501 -0.695536 -0.249575 0.344019 0.278840 -0.291670 1.167622 0.448422 0.015392 -0.307663 -0.295194 0.897156 -0.297713 -0.160351 0.165469 0.843936 -0.358961 0.582095 -0.081665 0.994367 0.375773 -0.901179 -0.125753 0.659060 0.543966 0.485049 -0.258689 -0.576612 -0.404621 -1.041493 -0.532965 -0.206866 -0.173939 -0.205670 -0.166070 -0.269204 0.908222 0.458581 -0.597600 0.499326 0.889767 1.000009 -0.715319 -0.196182
sent_30 -0.459153 0.125938 0.090506 0.411501 -1.052680 0.446561 0.528651 -0.209365 0.494733 -0.093390 -0.106827 -0.390715 -0.591182 -0.932493 -0.324087 0.134927 -0.140385 0.671696 -0.067083 0.211541 0.045465 -0.842880 -0.733279 -0.159244 0.267836 0.286381 -0.362839 -0.379879 -0.080428 0.763492 -0.080060 0.604382 0.406601 0.221384 -0.107150 0.514891 -0.916138 0.457797 0.633619 0.089718 0.117994 -0.531522 -0.091535 0.031159 -0.635642 -0.030517 0.186898 -0.370992 0.100694 -0.317629 -0.283168 -0.413926 0.396419 0.487136 0.162780 0.258283 1.102897 -0.835839 0.311183 0.712502 -0.237490 -0.486769 -0.241608 -0.241509 0.703773 -0.170456 0.699265 -1.334815 0.248407 -0.415522 0.206493 -0.466249 -0.362681 0.501800 0.620081 0.663104 -0.194505 -1.503729 0.098233 -0.256168 0.038289 -0.182026 0.137381 -0.736983 0.134405 0.027801 -1.118244 -0.476816 -1.402878 -0.261168 -0.038876 -0.078073 0.150565 1.045270 -0.591535 -0.492939 -0.138658 0.181450 0.241110 0.732779
sent_31 0.472437 0.096267 -0.236171 -0.371962 0.247984 0.430007 -0.185437 -0.150683 -0.057871 -0.028118 -0.455464 0.934095 -0.353740 -0.196475 -0.397400 -0.135411 -1.488490 1.076721 -0.825802 -0.590045 -0.815490 0.276328 0.527670 0.478990 0.401514 0.527547 0.105837 -0.030780 0.247389 1.056400 0.354776 0.055565 0.673534 0.280165 -0.468957 0.218886 -0.766990 0.988206 0.330865 0.155886 0.263112 -0.366163 0.284971 -0.380342 -0.250853 -0.518275 -0.436001 -0.659588 0.419545 0.184039 -0.126777 0.210800 0.410694 -0.432413 -0.636275 -0.106868 0.598809 -0.756231 -0.434165 0.332066 -0.113314 0.153529 0.107615 0.544559 0.472783 -0.583108 -0.227145 0.266256 -0.572003 -0.099424 0.244905 0.375872 -0.415849 0.257001 -0.042882 0.584147 0.535244 -0.883929 0.095204 0.596949 0.546668 0.079219 -0.081206 -0.376101 0.167168 -0.747565 0.028646 -0.369425 -0.747056 -0.119917 -0.723954 -0.482177 0.591804 0.794601 0.250592 0.277537 0.726745 0.594833 -0.755927 -0.038794
sent_32 -0.115329 0.053322 0.099785 0.373532 0.028311 -0.416871 0.300392 0.430864 0.706011 0.351806 -0.256697 -0.203132 -0.590543 -0.632323 -0.087560 -0.198180 -0.089785 -0.219579 -0.431582 0.033970 -0.187717 -0.073300 0.237978 -0.119838 0.095962 0.491130 0.214052 0.394279 -0.169146 0.465349 -0.256004 -0.304596 0.173174 -0.502958 -0.663531 -0.084877 0.011790 0.052719 -0.120616 0.784458 0.031291 -0.428647 -0.627206 0.297163 -0.226596 0.172536 -0.462180 0.589374 -0.557833 0.154916 -0.069001 -0.771855 0.395503 0.360413 -0.164503 0.047808 0.471823 0.226817 0.084418 -0.199471 -0.170517 -0.256518 -0.278063 0.187144 -0.101204 -0.483039 0.448722 -0.463939 -0.305279 -0.568273 0.181820 -0.661693 0.296213 -0.149175 0.269451 0.542865 -0.514268 0.081609 -0.112356 -0.045217 0.062212 -0.286565 -0.624380 -0.447913 0.940290 -0.438857 0.694283 0.369516 0.284175 -0.239968 0.450129 0.090940 0.563742 0.686963 0.716095 -0.183190 -0.120133 -0.317353 -0.711365 -0.098832
sent_33 0.395512 -0.275027 -0.000773 -0.425833 0.491829 -0.211131 -0.183954 -0.027676 0.070023 -0.230282 0.740121 -0.083105 -0.202453 -0.262701 -0.389443 -0.029257 -0.364989 -0.335628 -0.632526 -0.126412 -0.292596 -0.013864 -0.868846 -0.223556 0.585482 -0.188131 0.101111 -0.420043 -0.234242 1.088675 -0.122265 0.283272 0.432846 0.488707 0.528274 0.252986 0.426809 -0.558541 0.046693 0.490405 -0.380698 0.045376 -0.112385 -0.088601 -0.026822 0.453510 -0.273213 -0.045586 0.083914 0.254916 0.084646 -0.212402 0.149545 0.434780 -0.083024 -0.118161 0.122356 0.493500 -0.098702 -0.054090 -0.532782 0.152293 -0.624926 0.297396 -0.037566 -0.475516 -0.425103 -0.220041 0.225145 -0.615184 0.169133 -0.786485 -0.667069 -0.277208 -0.480858 0.192682 -0.124565 -0.169723 -0.119063 0.006775 0.453085 -0.394872 -0.046675 -0.190505 0.566274 0.139348 0.187068 -0.020264 0.107474 -0.106193 0.406140 -0.101728 -0.515877 0.065958 0.470089 -0.081361 0.118955 0.257428 0.062744 0.109100
sent_34 0.274304 0.446871 -0.680043 -0.224758 0.870755 -0.202475 0.229888 -0.817961 0.453813 -0.525503 0.270949 -0.244805 -0.009058 -0.033319 -0.773383 1.163395 0.121004 -0.120280 -0.567822 0.246975 -0.518331 -0.069641 -0.128327 0.775587 0.094036 0.053655 0.088483 0.684903 0.293600 -0.268057 -0.312859 0.448254 0.208420 -0.067006 1.013571 0.149632 -0.041556 -0.371129 0.046494 -0.208641 0.093321 0.112873 0.012168 0.163529 -0.031443 0.362143 -0.867294 0.172079 0.584499 0.170525 -0.007600 0.293030 0.302696 -0.080686 0.250215 -0.509926 0.509051 0.767917 -0.315779 -0.190703 -0.606006 0.187224 -0.681964 0.703334 0.028904 -0.387173 0.154328 -0.644919 0.383676 -0.402632 0.338287 -0.027248 0.057811 -0.165082 -0.291534 0.793619 0.677140 -0.305187 0.013052 0.057255 -0.611119 -0.082752 -0.517675 0.588451 0.642858 -0.626545 -0.086194 -0.035377 -0.450322 0.279525 0.091990 0.131504 0.551971 0.685828 0.493546 -0.617439 -0.451273 -0.282844 -0.432170 -0.011417
sent_35 0.080243 0.194945 -0.317620 -0.398229 0.169630 0.396810 0.322286 0.312231 -0.501665 -0.370490 -0.734258 -0.177124 0.067309 -0.452640 0.271277 -0.216465 -0.805430 0.988406 -0.647722 -0.456976 -1.123615 0.007057 0.409877 0.762370 -0.153130 0.412077 -0.156784 0.353058 -0.510701 1.057049 0.229787 -0.311874 -0.372497 0.622633 -0.880210 0.584331 0.300975 0.492614 0.193314 -0.534446 0.262472 -0.494488 0.374779 -0.260596 -0.361361 -0.650315 -0.447385 -0.088930 -0.047196 0.336381 -0.413587 0.426532 0.066083 -0.163967 -0.196422 -0.001762 0.237035 -0.395250 -0.308010 0.329919 0.059024 -0.048781 0.344198 0.332798 0.131188 -0.487959 -0.193755 0.265064 -0.404037 -0.225408 -0.214056 0.343406 -0.616232 0.463368 -0.123733 0.901900 0.569873 -0.688935 0.253458 0.607376 0.664040 0.306245 -0.225739 -0.635240 -0.287668 -0.970404 0.132060 -0.306372 -0.157844 -0.213922 -0.158416 -0.241737 0.834728 1.003171 -0.386874 0.453329 0.650306 0.429115 -0.426770 -0.000723
sent_36 0.310923 -0.828981 0.379388 -0.910243 0.092194 0.044203 0.069275 -0.004452 0.467436 0.082010 -0.571736 -0.368203 0.194268 -0.423911 -0.223476 -0.010802 -0.669214 0.828013 -0.247446 0.889237 0.059600 -1.797010 -0.737207 1.100674 0.298837 -0.292464 0.964849 -0.031694 -0.193063 0.269419 -0.681144 0.325075 -0.253106 0.194645 -0.252368 0.648230 -0.034987 0.235166 0.229623 -0.214669 0.001415 0.322964 0.490694 -0.296141 -0.782908 0.010264 -0.547246 0.259185 0.124929 -1.094002 0.088931 -0.493417 -0.089937 -0.143448 -0.681637 -0.716773 -0.023097 -0.108085 -0.593531 0.248666 0.097816 -0.272233 -0.688926 0.117142 0.960495 -0.649131 0.531358 -0.312867 -1.069454 -0.408498 0.068299 0.127855 0.403963 0.757267 0.590182 0.420908 -0.114211 -0.982390 0.205402 0.655756 0.566506 -0.168718 -0.128999 -0.597887 0.151623 -0.910739 -0.089906 -0.380285 -0.155726 0.112816 0.363676 0.453551 0.209575 0.863767 -0.096342 0.664378 0.775942 0.125743 0.496584 -0.691557
sent_37 0.167725 0.841906 0.730822 -0.289371 0.399656 -0.679009 0.503365 -1.089311 0.533692 0.067960 0.353849 0.469107 0.543505 -0.296753 -0.696783 0.125198 -0.174915 0.382015 -0.761505 0.103208 -0.104205 -0.783552 0.135065 -0.297152 0.507305 0.206175 0.505765 0.673282 -0.851631 0.506363 -0.188556 -0.160049 0.348875 0.145182 0.459258 0.042760 0.619764 -0.547773 -0.921000 0.437267 1.105713 -0.659825 -0.543396 0.312791 -0.704372 0.142734 -0.216442 -0.066500 -0.239314 -0.898419 -0.829058 -0.880253 0.091886 0.333704 -0.774193 0.239806 1.007916 -0.103696 1.036542 0.527919 0.814107 -0.740888 -0.717742 -1.039594 0.402731 0.613475 -0.341077 -0.228939 -0.212182 -1.530206 1.060253 -0.817188 -0.230432 0.438853 -1.110386 0.477442 -0.815713 -0.584874 -0.534588 -0.418457 0.883002 -0.373541 -0.378241 0.431237 0.843994 0.360479 0.418323 -0.207543 0.563767 0.661631 0.245003 -0.538592 0.097905 0.627762 0.846796 0.608785 0.639752 -0.398506 -0.129421 0.465509
sent_38 0.614652 0.061758 -0.220671 -0.359814 -0.524907 -0.624269 0.143844 -0.542805 0.438175 0.269767 0.369152 -1.147338 -1.401428 -1.062592 0.333342 0.270525 -0.614849 0.821637 -0.532429 0.281021 -0.893767 -0.628470 -0.223459 0.267861 -0.603845 0.434042 -0.082659 -0.612436 -0.828729 0.861284 0.394352 0.067443 -0.024416 0.086269 -0.124180 -0.176620 0.120972 0.868136 0.171842 0.202315 -0.028180 -0.181921 0.068013 0.397332 -0.510107 0.226025 0.482527 0.130960 -0.422341 0.879155 -0.139706 -0.033741 0.865440 0.426195 -1.008676 0.490346 -0.421681 0.375945 -0.387921 -0.022112 1.127581 -0.851637 0.201449 -0.108025 0.334044 0.543464 0.793935 -0.606302 -0.416128 -0.012421 -0.084333 0.729502 -0.054645 0.271222 -0.051950 0.416119 -0.603120 -0.656645 0.473825 0.840907 0.084643 0.880552 -0.511290 0.017894 0.510083 -0.574706 -0.038564 -0.125010 -0.549082 -1.017059 0.225539 0.312926 1.099049 0.475362 -0.050292 -0.182126 0.503863 0.590003 -0.354307 1.009180
sent_39 0.003543 0.136765 -0.040769 -0.497030 0.317073 0.101904 0.030597 0.424969 0.328789 -0.157338 1.060748 -0.799627 -0.163590 -0.389021 -0.517505 0.214178 -0.222609 0.065348 -0.657362 -0.780262 0.058087 -0.174187 -0.293920 0.541882 0.136881 -0.346171 0.605176 0.128621 -0.296403 -0.197469 0.404580 -0.690786 0.393546 -0.655472 0.052812 -0.265195 0.178014 -1.167717 0.188508 -0.587437 -0.016588 0.480395 -0.407177 -0.134250 -0.960619 0.343949 -0.603718 0.602292 0.000579 0.443108 -1.297323 -0.159531 0.471885 0.474961 -0.263102 -0.152643 0.176850 -0.437808 -0.295716 0.284771 0.108266 -0.267648 0.247344 0.520833 0.376691 -0.591872 0.146746 -0.719920 -0.231614 -1.008622 0.533396 0.410840 0.562701 -0.167183 -0.565864 0.410949 0.169627 -0.652902 -0.490815 -0.213713 0.468837 -0.187038 -0.274441 -0.404606 -0.041074 -0.166986 0.561218 0.328336 0.037767 0.286415 0.210793 -0.563396 -0.004851 0.930042 0.098750 0.228946 -0.320394 0.336364 -0.432996 -0.441172
sent_40 0.622450 0.073132 0.441953 -0.077044 0.601045 0.510906 0.015377 -0.518263 0.200274 -1.018189 0.642216 -0.376511 -0.060809 -0.431004 -0.715969 -0.097811 -0.332306 -0.070494 -1.418344 -0.014353 -1.017646 0.201217 -0.506651 0.121997 0.658622 -0.289361 0.001392 -0.281176 -0.275452 -0.141789 -0.280488 0.175606 1.030040 -0.453772 0.105357 0.260308 0.499356 -0.660891 -0.171537 -0.000444 -0.222971 0.101971 0.416493 0.094526 -0.813141 0.084017 -0.049732 0.098594 0.469166 0.133556 -0.390833 -0.189154 -0.070342 -0.046058 0.288864 -1.061747 0.743700 0.586124 -0.048742 0.027849 0.029495 -0.147754 -0.870429 0.560764 0.003711 -0.248602 0.134383 -0.698492 -0.815137 -0.372059 0.335978 -0.529139 -0.097483 0.786608 -0.692558 0.591245 1.292063 -0.340666 0.094845 -0.617669 -0.742464 -0.132512 -0.281260 -0.471347 -0.038514 -0.004647 0.623151 -0.643403 -0.178868 -0.868275 0.760181 -0.240319 0.369713 -0.064780 0.040643 0.018145 -0.118929 0.365087 0.017330 -0.089355
sent_41 0.174107 0.000434 -0.236000 -0.216928 0.058556 -0.043283 0.226502 -0.258881 0.189012 0.115668 -0.142135 0.402847 -0.143331 -0.229653 -0.269500 0.373844 -0.222226 0.060660 -0.372264 -0.112316 -0.159264 -0.324578 -0.252723 0.535224 0.169951 -0.110771 -0.154238 0.030458 0.060788 0.404711 -0.031313 0.148364 -0.046731 0.289687 0.488807 -0.232194 -0.181681 0.080771 -0.108429 0.159020 0.483234 0.401151 0.384342 -0.370546 -0.220563 0.039893 0.258807 -0.049868 -0.194835 0.165365 0.343292 0.421930 0.160723 0.397885 -0.473784 0.049830 0.160993 -0.067896 -0.097060 0.358958 -0.002446 -0.302778 -0.176579 -0.045261 -0.239120 -0.009389 0.117658 -0.114911 -0.228187 0.065574 -0.287110 0.067785 0.016994 -0.041421 -0.202767 0.381282 -0.270163 0.077260 0.332703 0.055670 -0.450168 -0.248099 -0.289502 -0.285871 -0.161254 -0.256621 0.102040 -0.185371 -0.025489 -0.344440 -0.057883 0.143386 0.366080 0.215530 0.048167 -0.026235 0.283087 0.226860 -0.063956 -0.147419
sent_42 -0.513410 -0.017593 1.149630 -0.923760 -0.368013 0.278873 -1.031849 0.122220 0.292389 0.970331 -1.956173 1.408462 0.773138 -0.024764 0.788032 0.870120 -0.946126 0.790253 -0.626983 0.550617 -2.139278 -0.807581 -0.277901 1.625907 -1.378980 0.098206 -0.999785 0.656923 -1.362711 0.229849 0.029718 2.133723 0.495898 -0.170221 2.006850 -0.111868 1.007862 0.999473 0.181585 0.391086 1.112204 -0.806319 -1.012255 1.156808 0.047607 0.737859 -1.514999 0.412158 1.033733 -0.308400 1.286459 0.978541 0.069070 0.079968 -1.124599 0.783752 0.132956 0.767212 1.183774 0.763356 0.975734 0.141721 0.142546 2.159856 0.316161 -0.101614 -0.511061 -1.960690 -1.177486 0.533568 0.130840 0.495605 -0.394243 0.487853 1.785525 0.630982 -0.345472 -0.014504 0.110047 -1.739036 -0.669602 -0.115471 -0.753980 1.644770 0.381479 0.974331 0.173310 0.528158 -0.339876 0.915400 -1.273079 1.335752 -1.470418 0.969368 0.098896 -1.734159 -0.316868 -0.078180 -1.684892 1.176957
sent_43 0.117769 0.294124 -0.485085 0.110632 0.669691 -0.482212 0.336682 -0.411512 0.096977 0.293196 0.249472 0.360508 0.212168 -0.906689 -0.426505 0.103228 -0.172582 0.876061 -0.679055 -0.124489 -0.317485 -0.101391 -0.000096 0.086955 -0.180896 -0.047854 0.305803 -0.349375 -0.072187 0.549744 0.207611 -0.077139 0.826347 -0.919615 -0.201753 -0.626719 0.516523 0.366864 0.412588 0.157898 -0.093144 -0.478981 -0.306340 -0.182725 -0.090620 0.190230 0.133605 0.176660 0.508582 0.081535 -0.414865 -0.597393 -0.045022 0.252032 0.132828 -0.156525 0.264713 0.607312 -0.389556 0.533968 -0.098962 -0.546283 -0.297150 0.757219 -0.182065 -0.348265 0.076639 -0.800191 -0.828653 -1.083058 0.831484 -0.488060 0.312288 0.072421 0.075255 0.549566 -0.387186 -0.105342 0.029290 -0.084000 -0.391773 0.014159 -0.950659 -0.735414 0.229175 -0.000451 0.498692 0.253674 0.521674 -0.221512 -0.471535 -0.381349 0.418029 -0.172424 0.254384 0.515941 -0.410898 -0.059184 0.138384 0.201348
sent_44 -0.288660 -0.331667 -0.285479 -0.072465 0.006732 -0.526903 0.915132 -0.644987 0.655206 0.083016 0.281581 0.037027 -1.170295 -1.409222 -0.158638 -0.006522 0.403120 0.431952 0.260257 0.205216 0.648661 -0.403000 0.326603 -0.155760 0.313313 0.142517 -0.143375 0.680696 -0.667228 -0.073314 -0.238411 0.590836 0.621635 0.280868 0.188396 -0.597948 -0.262536 0.598120 -0.269243 0.135163 0.117762 -0.284541 -0.069652 -0.448664 -0.306375 -0.296408 0.609981 -0.135688 -0.275570 0.476482 -0.188146 -0.314191 0.119517 0.224166 -0.007935 0.120841 0.542218 0.207766 0.660874 0.193329 0.510948 0.188254 0.278786 0.570045 0.469704 -0.637658 -0.272392 -1.093080 -0.479294 0.538711 0.886505 -0.577594 0.293892 -0.552914 -0.549830 0.493596 0.453444 -1.211414 -0.179615 -0.218277 0.285556 0.127053 -0.250739 -0.395597 0.067771 -0.174028 -0.512661 -0.268047 -0.777975 -0.248570 0.344034 -0.070882 0.229063 0.108799 -0.368411 0.623587 0.553321 -0.202355 -0.129276 0.663081
sent_45 -0.044231 -0.426213 -0.451147 -0.281673 -0.033228 -0.036884 0.109696 -0.183985 1.438686 -0.043059 -0.798195 -0.043330 -1.052184 -1.127166 -0.287237 -0.001337 -0.030454 0.733482 -0.835997 -0.225753 -0.252741 -0.164688 0.953870 0.425492 -0.270795 0.042256 0.081299 0.101032 -0.116260 -0.147496 -0.836368 0.430127 -0.809000 0.275002 -0.827484 -0.094961 -0.071460 -0.459020 -0.236672 -0.367057 -0.255182 -0.491529 0.221174 -0.538274 0.496617 0.495685 -0.191021 0.377658 -0.185567 0.590605 -0.609671 -1.098231 0.684561 0.724210 -0.512088 0.833712 0.505127 0.025337 -0.546206 -0.177205 -0.372373 0.238375 -0.568357 -0.969128 0.508713 0.260019 0.214062 -0.899757 0.433433 -0.239630 0.162351 -0.185712 0.061296 0.698285 -0.842111 0.446631 0.280887 -0.062975 -0.265836 1.577714 0.397512 0.053947 -0.513241 -0.688151 0.614676 0.583580 0.146098 -0.224700 -0.253593 0.542722 0.302779 0.467306 0.394895 -0.750709 0.318851 0.121532 0.878930 0.517219 -1.027819 -0.315050
sent_46 -0.739618 0.304957 -0.172437 -0.411038 -0.400606 0.472688 0.842450 -0.907657 0.715070 0.120248 0.074129 0.958725 0.231000 0.668446 -0.617015 0.258353 -0.553453 0.722496 -0.554033 -0.286440 -1.210553 -0.105224 0.076105 -0.086035 -0.449256 0.393242 0.750797 0.648695 -0.685986 0.228293 -0.004606 -0.606844 0.725694 0.098754 0.131047 -0.318106 -0.105898 0.426306 -0.374291 0.541697 0.607823 -0.644171 -0.087273 0.291607 -0.836377 -0.537697 -0.646764 0.143038 -0.376154 0.023929 -1.114218 0.655667 -0.271910 0.167145 -0.519781 -0.040315 0.444523 -1.348437 -0.129380 0.517656 0.708844 -0.132114 0.497876 0.437792 0.121404 -0.476135 0.156514 -0.666981 -0.493267 -0.747006 -1.064968 0.035140 -0.168601 0.839882 0.132668 1.012791 0.255406 -0.607932 0.306146 0.603665 0.038073 -0.268825 -0.480860 -0.464729 -0.406000 -0.225974 0.882127 -0.135617 -0.467675 -0.990419 0.039408 0.477038 0.847724 0.782556 -0.186877 0.666745 1.192653 -0.000826 -0.363050 0.446402
sent_47 0.650681 -0.024782 0.433066 -0.507387 -0.131036 -0.287568 -0.201320 -0.030887 -0.035381 -0.422318 -0.163604 -0.229722 -0.619940 -0.110554 0.011393 0.021010 -0.553424 0.651958 -0.295386 0.113640 -0.431301 -0.357549 -0.118812 0.950948 0.147013 0.023965 -0.212634 -0.022009 -0.097789 0.922710 0.284330 0.276190 -0.133801 0.723474 -0.314699 0.188714 -0.173243 0.295591 1.003068 0.064886 -0.322479 -0.481178 0.251598 -0.147320 0.198585 -0.421785 -0.159079 0.474047 -0.888760 0.218801 0.340633 -0.295251 0.520699 0.304127 0.528171 0.153794 0.535520 -0.346454 0.170533 0.471335 0.108290 0.071457 0.432671 0.200789 0.233522 -0.231605 -0.220754 -0.336152 -0.131906 -0.341594 0.319382 -0.192085 0.042376 0.110150 -0.599282 -0.159342 0.075740 -0.092399 0.090900 0.209880 0.134349 0.482267 -0.042599 -0.409083 0.257786 0.156565 -0.074835 -0.318886 -0.517507 -0.358566 0.207430 0.004896 0.558232 0.441481 -0.172249 0.023106 0.765989 0.101282 -0.362841 0.252429
sent_48 0.158421 0.153450 -0.000922 -0.000802 0.339986 -0.261813 -0.003683 0.310630 0.508229 -0.025634 0.245925 -0.026658 -0.504752 -0.168815 -0.123828 0.229308 -0.182853 -0.387046 -0.365018 0.142807 0.150134 -0.283890 -0.205064 -0.227359 -0.008157 -0.151243 0.168449 -0.305747 -0.166996 0.234798 0.017227 0.667557 -0.000067 -0.093167 0.041920 0.287432 0.056427 -0.124972 0.523956 0.209936 0.002930 -0.201409 -0.578200 -0.366372 -0.169729 0.513341 0.108293 0.205741 -0.334545 0.373193 -0.497159 0.097331 0.294575 -0.435481 0.045419 -0.053355 0.208348 0.064075 -0.070226 -0.289480 -0.048280 -0.591223 -0.201922 -0.331406 0.194392 -0.201275 0.016029 -0.423155 -0.352039 -0.378590 -0.298505 -0.552146 -0.178884 -0.396549 0.159198 -0.020367 -0.259878 -0.388234 -0.081802 0.193164 -0.148303 0.116676 -0.022102 -0.103001 0.222549 -0.414193 -0.482609 0.154968 -0.262877 -0.259532 0.184808 0.170082 0.509204 -0.171703 0.107919 0.061894 -0.072258 0.073495 0.793016 -0.026854
sent_49 0.102785 0.281023 -0.067251 -0.083313 0.054922 1.054013 0.429976 -0.255102 0.473979 -0.819483 -0.670491 -0.039111 -0.477403 -0.071683 -0.435579 -0.138349 -0.673099 0.667760 -0.557000 -0.640649 0.088305 -0.357737 0.025163 0.874011 -0.237819 0.430138 0.385827 0.255197 0.075407 0.649150 -0.853363 -0.232111 -0.372729 0.492475 -0.713095 0.056546 0.239239 0.688733 0.658492 -0.629955 0.874141 -0.349816 0.337497 -0.093769 -0.401618 -0.522268 -0.654790 0.828103 -0.342697 0.044123 -0.493176 -0.134331 0.192934 0.018538 -0.066663 -0.307178 -0.081753 -0.175187 0.373053 0.668399 0.060298 -0.565040 -0.080186 0.145971 0.674594 -0.324221 0.090227 -0.113096 -0.189861 0.249842 -0.183613 0.302924 -0.146701 0.854740 -0.180031 1.001703 0.146721 -0.438065 0.862336 0.714684 0.447246 0.332741 0.204610 -0.531478 0.284854 -0.538804 -0.328356 -0.357856 -0.826253 -0.242961 -0.015270 -0.058762 0.532118 1.403759 -0.474525 0.116891 1.218871 -0.277915 0.432652 -0.212596
sent_50 0.011891 0.174372 0.102626 -0.371425 -0.087495 0.253265 0.502183 0.213038 -0.323466 -0.118430 0.042851 0.310450 -0.540640 -0.824767 -0.309650 -0.453834 -0.389136 1.020621 -0.561272 -0.216468 -0.877363 -0.359363 0.674963 0.516278 -0.031584 0.749141 -0.083714 0.659058 -0.060710 1.633356 -0.059276 -0.005352 -0.076626 0.016860 -0.537785 0.439151 -0.891901 -0.376294 0.119919 -0.030831 0.545442 -0.652580 -0.354821 -0.178086 -0.278966 -0.064883 -0.699827 -0.328686 0.314384 0.459034 0.079751 -0.165663 0.002040 -0.067713 0.620934 -0.409003 0.502760 -1.473398 -0.611057 0.342703 0.570384 0.152442 0.768499 0.583895 0.260201 -0.898981 -0.035405 0.871491 -0.365283 0.354719 0.038670 0.638432 0.045681 -0.060012 -0.127945 1.143767 0.285958 -0.958248 -0.091890 0.861853 0.790240 0.673192 0.098869 -0.537753 0.202751 -0.437321 -0.505342 -0.323259 -0.760366 -0.053053 -1.245920 0.315689 0.701658 0.867365 -0.036815 0.343590 0.841770 0.384833 -0.785605 -0.143678
sent_51 0.583996 0.111572 0.143255 -0.641404 0.059512 0.606034 0.607188 0.778450 0.626735 0.279311 -0.424863 0.282992 -0.201623 -0.106893 -0.567184 0.111389 0.217976 0.255778 0.003872 -0.610128 -0.671836 -0.656174 0.562303 0.020182 -0.221403 0.164287 -0.108639 0.822767 -0.047033 0.748944 0.614314 0.247139 0.254223 0.358726 0.031764 -0.279224 0.316315 0.034542 -0.657858 0.042149 0.114995 -0.805620 -0.857403 0.586315 -0.565029 -0.150085 -0.517039 0.382804 -0.266286 0.084499 0.356638 -0.223541 0.638341 0.071695 -0.316495 0.094571 0.780609 -0.749745 0.561949 0.517694 0.287104 -0.065205 -0.214009 -0.473280 -0.019469 -1.031955 0.753806 0.189663 -0.367819 -0.089477 -0.367034 0.362531 0.219406 0.906017 -0.370067 -0.229587 -0.369296 -0.698945 -0.312161 0.459096 -0.162817 0.477890 -0.166090 -0.401695 -0.508169 -0.125096 -0.353993 -0.450423 -0.767968 -0.193735 -0.935326 0.233016 0.703765 0.430216 -0.593100 -0.020555 0.633215 0.538847 -0.758928 1.406831
sent_52 0.241440 -0.317926 -0.478097 -0.397806 -0.316613 0.368019 0.554258 0.176144 0.062771 -0.053045 -0.319589 -0.008143 -0.188555 -0.811156 -0.465400 0.056312 -0.766497 0.089841 -0.651246 -0.405334 -0.008268 -0.875409 -0.213151 0.394510 0.168789 0.253583 0.104555 -0.076925 -0.246970 0.211819 0.023571 -0.277020 0.377897 0.442412 -0.100036 -0.607216 -0.105223 0.404323 0.071841 -0.007568 -0.051719 0.058167 -0.001148 -0.207016 -0.062024 -0.199697 -0.195290 -0.130255 0.089875 -0.104501 -0.586219 -0.156322 0.344312 0.356788 0.404344 -0.179462 0.148210 -0.062723 0.070517 0.140103 -0.252369 -0.294386 0.498905 -0.007971 0.277434 -0.020494 0.085169 -0.752242 -0.534076 -0.513286 0.243018 -0.202704 -0.112215 0.250714 -0.251066 0.310287 0.219167 -0.213152 -0.073230 0.060562 -0.566828 -0.096756 -0.867317 -0.562200 0.244791 -0.167068 0.007054 -0.215180 -0.325740 -0.660388 -0.097914 -0.116889 0.244388 0.193975 -0.207779 0.084283 0.671450 -0.300018 -0.269993 0.259698
sent_53 0.573699 -0.122191 -0.381625 0.456440 -0.183081 0.250654 0.577005 -0.220614 0.115008 -0.630787 -0.421278 -0.422028 -0.488626 -0.303601 0.011389 0.564755 0.165406 0.041990 -0.987883 -0.547868 -0.208020 -0.772860 -0.452964 0.194646 -0.084051 -0.089326 0.477113 -0.031721 0.152829 -0.099785 0.024987 -0.112391 0.385897 0.336384 0.619839 0.282751 0.188741 -0.085822 0.229280 -0.122147 0.181289 -0.017719 -0.278917 -0.236718 -0.063435 -0.454841 -0.282091 -0.200607 -0.265480 0.487658 0.003122 0.025841 0.134135 0.302589 0.256800 -0.442993 0.762271 -0.049839 -0.037998 -0.258943 -0.265868 0.013570 0.778618 -0.334791 0.255225 -0.163663 0.204358 -0.085401 -0.553474 -0.436041 0.740426 -0.446944 0.141378 0.802959 0.327183 0.239172 -0.130547 -0.174733 0.372695 0.085495 -0.201851 -0.032199 -0.373839 -0.313663 0.719864 0.315065 0.029155 -0.121854 -0.227154 -0.255897 -0.353140 0.321163 -0.171493 0.002486 -0.489627 -0.347393 0.594022 0.621751 -0.447326 0.487919
sent_54 0.159430 -0.327414 -0.337104 0.421880 -0.393483 -0.233464 0.151642 0.444917 0.147521 -0.251559 -0.102123 0.114397 -0.212560 -0.462218 0.228864 -0.092065 0.188643 0.606818 0.116268 -0.152529 -0.540193 -0.243985 -0.194419 -0.140472 0.119496 0.200241 0.202066 0.210490 -0.486479 -0.225762 -0.065061 0.004836 -0.206779 -0.202169 0.319634 0.161054 -0.383447 -0.168004 0.064908 -0.069717 0.230425 0.344788 0.208423 -0.102770 -0.005926 -0.392846 -0.129302 0.010132 -0.451744 -0.206131 -0.203383 -0.369034 -0.357194 0.124864 0.154253 -0.268205 -0.294868 -0.167032 0.262482 -0.079011 0.586889 0.265943 0.165067 -0.161666 0.051640 0.166131 0.006970 -0.590468 -0.435841 -0.126011 -0.206547 0.350188 -0.092191 -0.062258 0.092583 0.268601 0.542595 0.378876 -0.282714 0.142301 0.096595 0.448713 0.094869 -0.266185 0.744689 -0.109131 -0.074409 0.042451 -0.189808 -0.682648 0.056741 -0.159273 -0.017970 -0.284429 -0.609590 0.216051 0.271086 0.398308 0.262773 0.164199
sent_55 -0.110983 -0.241221 -0.259403 -0.887874 -0.108753 -0.199772 0.133431 0.054683 0.282520 -0.403901 -0.675876 0.328407 -0.381282 -1.205694 -0.476764 0.254182 -0.476939 0.712227 -0.605177 -0.126021 0.119064 -0.762390 -0.750675 0.472087 -0.119791 -0.081145 -0.093323 0.404343 -0.639954 0.209568 -0.336145 0.392565 0.039148 0.156544 -0.120562 0.328040 -0.502858 -0.413368 0.120055 0.170934 -0.238492 0.499732 -0.639899 -0.135030 -0.235372 -0.030511 -0.007458 -0.586583 -0.222359 -0.184978 -0.702224 -0.157590 0.620921 0.382338 0.611168 -0.297492 0.035440 -0.320554 0.358799 -0.277891 -0.023045 -0.483799 0.164077 -0.378078 0.441370 0.046602 0.539231 -0.547415 0.321148 -0.180222 0.279597 -0.500867 0.078446 0.327533 -0.362691 0.833066 -0.184147 -0.221964 -0.175690 0.222265 0.526053 -0.119411 -0.276612 0.576751 -0.090119 -0.295473 -0.265291 -0.506547 -0.077459 -0.149221 -0.777499 -0.266480 0.389140 0.513965 -0.009969 -0.183080 0.205400 -0.438398 0.135995 0.370968
sent_56 -0.422933 -0.212967 -0.599158 0.137216 0.031965 0.734499 0.113105 0.269408 0.297255 -0.331245 0.199773 0.401599 -0.053911 -0.337219 0.442510 0.789751 -0.382970 -0.323157 -0.214502 0.136806 0.085620 -1.055242 -0.560367 0.983978 -0.919278 0.139874 0.054967 0.379574 -0.888036 0.546959 0.321035 -0.857434 -0.190784 -0.492537 -0.211136 -0.076906 0.685124 -0.439233 0.129333 0.183940 0.341915 -0.593368 0.089881 -0.033335 0.418159 -0.487885 0.251577 -0.284084 -0.442533 -0.331038 -0.060758 -0.245299 -0.318826 0.176356 0.496427 0.036375 0.490772 -0.539060 -0.434163 0.898118 0.297044 -0.246992 -0.460072 0.140234 0.301652 0.193629 -0.446730 -0.839176 -0.969552 -0.418259 -0.292080 -0.771382 0.098560 0.173294 -0.230395 0.313285 -0.081350 -0.515726 0.032670 0.344970 -0.972752 -0.851055 -0.095521 -0.531084 -0.367462 0.626753 0.279541 0.117013 -0.338782 0.741697 -0.103936 0.921830 -0.027337 0.157907 -0.815050 -0.111074 -0.207787 0.207637 0.185555 0.563426
sent_57 -0.654740 -0.079678 -0.624334 -0.005075 0.111280 0.389754 0.740511 0.064492 -0.118835 -0.433302 -0.199197 0.427447 -0.263356 -0.422433 -0.590041 0.622633 -0.854447 -0.707495 0.085046 -0.416375 0.130069 -0.448387 -0.361877 1.195839 0.356621 -0.132136 -0.179191 0.527726 -0.486975 0.527249 0.148097 0.644768 -0.088976 -0.037279 1.220972 -0.401866 0.477406 0.283229 0.589802 0.191609 0.308862 -0.259647 -0.523425 0.600690 -0.091657 0.004868 -0.413368 -0.371784 -0.523149 -0.187775 0.002293 -0.430651 -0.008733 0.727355 0.184498 -0.010839 1.198070 0.206569 0.528527 -0.220702 -1.125825 -0.616812 -0.424102 -0.473570 0.028152 0.486078 0.452415 -0.302168 -0.064649 -0.146593 0.045188 0.270418 0.000688 0.253311 0.260269 -0.426559 -0.458449 -0.100518 0.185557 -0.040148 -0.306218 -0.614375 -0.698689 -0.462784 0.640230 -0.447221 0.111763 -0.630300 -0.337613 -0.400808 -0.102132 0.569806 0.318508 0.249017 0.144670 -0.070272 0.139295 0.497506 0.638896 0.673660
sent_58 -0.280269 0.091618 -0.179270 -0.801657 0.697583 0.004492 0.681815 -0.103782 0.580319 0.356243 -0.876584 -0.306022 -0.209633 -0.713524 0.156534 -0.128636 -0.906319 -0.581959 0.105899 -0.613744 -0.508208 0.354647 -0.302149 0.072640 -0.237693 -0.652638 -0.242326 0.196778 -0.292332 0.394752 0.069517 0.003411 0.512383 -0.621215 1.456137 -0.470905 0.572123 -0.025561 -0.172011 -0.210639 0.462930 0.075289 -0.166051 0.188387 0.859824 -0.329894 -0.012274 -0.399728 -0.216428 -0.420024 0.040750 -0.599014 0.069813 0.454453 -0.284717 -0.066491 0.376034 -0.559798 0.337199 0.658632 -0.436512 0.143087 0.049603 -0.040855 -0.210926 0.617107 0.032955 0.097183 -0.335435 0.219739 0.617841 -0.002136 -0.401186 -0.594049 0.067405 0.830261 0.122466 0.940580 0.479182 -0.222377 0.452311 -0.763885 -0.714702 -0.512803 0.124332 -0.238077 0.554956 -0.829740 0.271825 0.971493 -0.111731 0.209899 -0.001357 0.898236 -0.053881 -0.167108 -0.099728 -0.267585 0.877002 0.194192
sent_59 0.136363 0.067002 -0.487116 -0.967079 0.676466 0.310448 0.409270 0.050197 0.003945 -0.052689 -0.554104 -0.066888 -0.530256 -1.009909 -0.563194 0.619967 0.059595 0.176464 -0.757124 -0.957675 -0.502393 -0.681998 -0.228732 0.369496 0.484084 -0.208843 -0.063861 -0.402052 0.081525 -0.046764 -0.577209 -0.150648 -0.019494 0.545354 0.305652 -0.229081 -0.325927 0.360958 -0.022097 0.633898 0.375282 0.117540 -0.021897 0.120886 0.293072 0.436875 0.537761 -0.728307 0.843068 -0.189224 -0.759422 0.068588 0.188145 -0.012387 0.415638 -0.409627 0.584153 -0.402415 -0.005049 -0.079401 0.281912 -0.676785 -0.514071 -0.320916 0.374540 0.036554 0.861429 -0.093080 -0.755961 -0.664192 0.164487 0.364895 0.287654 0.504060 -0.148513 0.289155 -0.178542 -0.440087 0.559023 0.255908 -0.451596 -0.087554 -0.438449 -0.399599 0.106652 0.286073 0.199818 -0.713079 -0.530848 -0.100571 0.244978 0.691672 0.349426 0.624293 0.118064 0.438972 0.475049 0.406287 0.232737 0.570859
sent_60 0.192012 -0.086032 -0.288589 -1.274353 0.550592 -0.397539 0.101276 0.253743 0.323434 -0.318092 -0.369787 0.318521 0.061466 -0.767548 -0.178734 -0.153105 -0.199217 -0.148698 -0.020395 -0.677891 -0.176408 -0.870824 -0.371290 -0.084722 -0.054616 -0.923757 0.307671 0.433684 -0.201839 0.504330 0.159933 -0.269027 0.250440 0.401844 0.297768 0.636347 0.065218 -0.025037 0.025459 0.399881 0.688312 0.026822 -0.154579 -0.284880 0.197213 0.245442 0.433968 0.129202 0.129652 0.056781 -0.006918 -0.556986 -0.091332 0.753579 0.049151 -0.096824 0.462070 -0.213438 0.438288 -0.319781 0.040063 -0.475906 -0.440397 -0.496343 0.484504 0.395924 0.010469 -0.729530 -0.396225 -0.080845 0.322716 -0.013802 -0.660252 0.015872 -0.350608 0.276707 -0.575756 -0.356946 0.051824 -0.227882 -0.350381 -0.301523 0.102992 -0.000707 0.638498 0.373975 -0.093451 0.028290 -0.296300 0.088370 0.480550 0.120363 0.221372 0.978383 0.040256 0.386709 0.029475 -0.151630 -0.707674 1.589426
sent_61 0.796406 -0.356292 0.441500 -1.160565 0.233165 -0.199516 -0.098671 0.457165 0.297348 0.127176 -0.360828 0.839289 0.148232 0.459609 -0.077910 -0.015845 -0.923027 -0.310241 0.100788 -1.005031 0.000462 -1.040705 -1.163337 -0.351347 -0.253176 0.415858 0.129345 0.584475 -0.259456 1.085227 -0.265545 0.220618 0.835212 0.844526 1.030826 -0.256242 0.717281 -0.700827 0.645295 0.838996 0.211346 -0.281987 -0.098918 0.129498 0.383254 -0.509888 0.245913 -0.550446 -0.234984 -0.162765 0.792835 -0.523942 0.405609 0.872410 -0.059223 0.018787 0.833284 -0.408419 0.417744 -0.101636 -0.273767 0.023632 -0.174859 -0.830952 -0.456963 0.088843 -0.527552 0.232033 -0.619625 -0.127600 0.893637 0.187211 -0.748695 -0.271121 0.212955 0.530604 -0.780101 -0.242512 -0.076919 -0.162442 -0.078254 -1.070771 -0.048987 0.072427 0.510019 -0.149878 0.702170 -0.645839 -0.174705 -0.425904 0.156297 0.313769 -0.343859 -0.036812 0.420325 -0.021103 -0.822240 -0.115379 -1.030137 0.409660
sent_62 -0.122375 0.394220 -0.775948 -1.077706 -0.517708 0.941910 0.546300 0.102693 1.167008 -0.100306 -0.813365 0.065513 0.618009 -0.052674 0.123983 -0.183435 -0.155796 0.001681 -0.669544 0.067106 0.713591 -1.075975 -0.299030 0.792746 0.637435 -0.282734 0.412237 0.600280 -0.178270 0.220599 0.604740 -0.259783 0.618569 -0.145179 1.435035 0.703189 -0.046570 0.125829 0.151780 -0.009798 0.219275 -0.222955 -0.568948 0.658650 -0.348980 -0.252503 0.314253 -0.872069 -0.484734 0.114701 0.074366 -1.138479 -0.032258 0.660556 -0.506332 -0.368461 -0.051960 -0.489195 0.471130 0.079338 0.058898 -0.018868 -0.243558 -0.067913 0.920084 -0.484837 0.398043 -0.706160 0.180403 0.550934 0.765795 0.412733 0.088222 0.845419 1.084502 0.332077 -0.337796 -1.102565 0.377847 -0.032077 -0.974122 -0.899811 0.132034 -1.043620 0.391355 -0.253296 -0.847393 -0.046728 -0.745564 -0.669010 -0.704650 0.605728 0.170541 0.656960 0.116664 -0.455456 0.552534 1.100597 -0.088509 0.703517
sent_63 0.018308 -0.224496 -0.058052 -0.651008 -0.365311 0.266221 0.110547 -0.048586 0.251198 -0.293170 -0.448634 0.452525 -0.245376 0.178448 -0.168169 0.185472 -0.147252 -0.307411 -0.251352 0.156625 -0.007130 -0.525232 -0.117055 0.501645 -0.105351 -0.217286 -0.392204 -0.023655 -0.319617 0.145699 0.223452 -0.478972 0.193024 0.685539 1.046611 -0.272270 0.643964 0.268598 0.430237 0.105628 0.333204 0.017227 0.010661 0.029504 -0.306594 0.073812 -0.360080 -0.127624 -0.551389 -0.159646 0.066044 -0.391397 -0.242328 0.563050 0.150381 -0.345978 0.214682 0.037142 0.049611 0.100559 -0.306510 -1.034121 0.483797 -0.366686 0.127188 -0.092942 0.322054 0.180765 -0.213202 0.150361 -0.076791 -0.395578 0.114648 -0.015578 -0.074600 -0.103590 -0.147668 -0.532263 -0.314753 0.462694 -0.005089 -0.547333 -0.060974 -0.529733 0.208197 -0.143659 -0.338708 0.247698 -0.084456 -0.312107 0.064951 0.108711 0.236192 0.051753 -0.550042 0.266867 0.104170 0.730216 -0.218923 0.308133
sent_64 0.479643 -0.003982 -0.256290 -0.552137 -0.402122 0.659101 0.637638 -0.462978 0.776255 -0.062850 -0.733262 -0.214232 -0.120209 -0.468474 -0.003079 0.137740 -0.271708 0.065587 -0.025097 -0.277795 0.579033 -0.284061 -0.055686 0.090815 -0.038269 -0.250198 0.204689 0.543882 -0.195287 -0.025434 0.008899 0.218061 0.283059 0.535318 0.145451 0.214740 -0.057237 0.270444 0.143848 -0.049191 0.054291 0.364600 -0.212850 0.219843 -0.182836 0.351836 -0.197164 -0.159567 0.221248 -0.257918 0.054215 -0.612747 0.174797 0.917515 -0.150248 0.249864 0.025944 -0.246254 -0.048994 0.571129 0.079706 -0.148330 0.096470 0.297337 0.767882 -0.013234 0.300054 -0.761704 -0.286844 -0.461045 0.240982 -0.229706 0.085181 0.338969 -0.276450 -0.074940 -0.726014 -0.276793 0.057512 0.161722 -0.643286 -0.198369 -0.325306 0.235396 0.917205 0.254609 -0.163119 -0.377473 -0.533793 -0.139649 -0.695653 -0.097368 -0.147719 0.398572 -0.051860 -0.061318 0.445686 0.312580 0.143278 0.381787
sent_65 0.382699 0.287078 -0.318201 -0.093549 0.057859 0.231243 0.338536 0.058465 -0.098451 -0.136700 -0.382426 0.448403 -0.224299 -0.267767 -0.324468 -0.062518 -0.258769 -0.248744 -0.094933 -0.461478 0.087837 -0.088445 0.083589 -0.096480 0.316505 0.065003 -0.206700 0.199804 -0.350631 0.402876 -0.233310 0.033082 0.165678 -0.102387 0.177210 -0.578004 0.878581 0.229802 0.000080 0.067696 -0.008432 0.309111 0.305487 0.305302 0.582075 0.060622 -0.252464 0.071737 -0.665019 0.331966 -0.171726 -0.671814 0.155414 0.486839 -0.183488 0.025831 0.167641 0.041408 0.735572 -0.001087 0.217257 -0.212420 -0.227719 -0.363520 -0.353137 -0.158782 -0.186982 0.071989 -0.573676 0.034378 -0.229445 0.394613 0.116118 -0.177286 -0.452002 -0.325152 -0.032641 -0.323403 -0.313803 0.402252 0.181662 -0.542193 0.374855 -0.621950 0.354523 0.006755 -0.498847 -0.720018 -0.401149 0.010610 0.228899 -0.664313 -0.140197 0.255232 0.123929 0.226546 0.081003 0.243326 0.154746 0.549194
sent_66 -0.076932 -0.454020 -0.370130 -0.567846 -0.855216 -0.397285 0.481528 0.861355 -0.174301 0.679096 -0.738986 0.106118 -0.005215 -0.478838 -0.520277 0.931435 -0.074023 0.272957 -0.604259 -0.574811 0.382834 -1.101933 -0.086806 0.192975 0.147265 -0.179375 0.022263 0.525127 0.101607 0.440346 -0.181041 -0.134034 0.684802 -0.032609 0.054012 -0.103167 0.267140 0.643664 0.594098 -0.795863 0.578051 0.584790 -0.417869 0.424567 -0.111387 -0.662497 -0.477358 -0.191859 -0.482453 0.016169 0.215827 -0.354471 -0.022345 0.493268 -0.018067 -0.713929 0.797309 -0.427494 0.448311 0.386088 -0.089541 -0.481751 0.632659 -0.548278 0.228353 -0.071168 0.276523 0.623894 -0.697818 0.030628 0.466839 -0.204975 -0.202732 0.944576 0.605880 -0.237820 -0.455340 -1.125040 -0.321576 0.062788 -0.169372 -1.281455 -0.113976 -1.133214 0.223139 0.508777 0.473426 -0.477104 -0.612694 0.121651 0.107059 0.624109 0.218191 -0.297677 -0.693702 -0.794995 0.366086 0.673643 0.306152 0.112781
sent_67 0.538945 -0.114130 0.238105 -0.907038 -0.129027 0.403835 0.728002 0.313740 0.252841 -0.195398 -0.772253 1.099111 -0.593303 -0.645620 -0.455288 0.019576 -0.150620 0.338059 -0.259218 -0.500750 -0.267594 -0.031625 0.191352 0.527349 0.402671 -0.008202 0.520931 0.631621 -0.291850 0.665373 0.525811 0.253755 0.454809 0.183052 0.222160 -0.106329 0.608315 -0.455759 0.662753 0.171973 -0.110725 0.227537 0.269574 0.320308 0.611141 0.083400 0.223614 -0.110086 -0.196288 -0.203229 0.670359 -0.603166 0.317905 0.792280 0.216590 0.185227 0.441096 -0.286587 0.343051 0.530254 0.521057 -0.163451 0.293468 -0.064415 -0.294518 0.317825 -0.224708 -0.453373 -1.050704 0.169430 0.376907 0.236598 -0.199710 -0.022300 0.100085 -0.441402 0.458202 -0.216951 0.027954 0.078647 -0.485705 -0.446051 -0.461805 -0.542077 -0.121869 -0.137651 0.192372 -0.454388 -0.068314 0.135764 -0.281630 -0.379522 -0.022975 0.024211 0.128334 -0.150348 -0.608983 0.535299 0.276609 0.452232
sent_68 0.167917 0.267000 -0.314932 -0.369381 -0.487355 0.293333 0.265774 -0.074963 0.184164 -0.153322 -0.433778 -0.153062 0.015786 -0.267320 0.288945 -0.236101 -0.525055 -0.162919 -0.365304 -0.477804 0.511688 -0.151968 -0.448902 -0.342514 -0.199316 -0.257596 -0.337204 0.190638 -0.350868 0.158277 -0.256141 0.342283 0.210726 -0.210367 0.378693 0.005103 0.156149 -0.794206 -0.014152 0.377276 -0.299369 -0.211942 -0.101033 0.129006 0.224994 0.104530 -0.493420 -0.765514 0.202454 -0.216144 -0.043861 0.125769 0.015999 0.300871 -0.095760 0.103793 0.339830 -0.190337 0.176746 0.441303 -0.215058 -0.193279 -0.190114 0.000635 0.200123 -0.093365 0.139950 0.201681 -0.269261 -0.919972 0.019062 0.024753 -0.289421 -0.667724 -0.277226 0.154051 0.016951 0.008499 0.090469 0.039726 -0.108050 -0.895084 -0.136044 -0.358630 0.490816 -0.147451 0.226686 -0.510662 -0.266666 0.347239 0.094063 -0.118064 -0.035236 0.095881 0.013620 0.344298 0.546295 0.253682 -0.241377 0.154858
sent_69 -0.093254 -0.028014 -0.609930 -0.251798 0.171634 -0.212577 0.143282 -0.068970 0.775063 0.015112 -0.207869 0.569144 -0.205287 -0.863196 -0.138633 0.085614 0.164190 -0.427781 0.059132 0.039899 -0.149132 -0.103286 -0.187778 0.631336 0.577997 -0.146833 0.506640 0.269028 -0.730740 0.679388 -0.188169 -0.222175 1.226659 -0.116462 0.534592 0.289463 -0.090869 -0.441195 0.098934 -0.511176 0.256107 0.350199 0.606985 -0.068440 0.004003 0.772662 1.017208 -0.214149 -0.431512 0.046162 -0.174917 -0.488895 0.359152 0.788586 0.304332 -0.265362 0.502068 -0.194780 -0.228391 0.370621 -0.168529 0.258514 -0.152499 -0.354435 0.169095 -0.091642 -0.218439 -0.671605 -0.493591 0.027511 0.472943 0.566249 1.366703 0.247771 -0.270680 -0.268766 0.362477 -0.991725 0.659873 -0.210138 -0.792742 -0.262401 -0.697788 -0.479970 0.007084 -1.349882 0.606887 -0.406516 0.081571 0.119894 0.016084 -0.069537 0.376953 -0.137255 -0.207023 -0.047620 -0.457620 0.613781 -0.301405 0.142506
sent_70 -0.163043 -0.471352 0.163627 -0.566903 0.452853 -0.080490 -0.182468 -0.274204 0.255056 -0.373220 -0.427455 0.035159 0.581101 0.117701 -0.246961 0.059807 -0.404941 -0.375009 0.228524 -0.776515 -0.255293 -0.252074 -0.082911 0.674213 0.142229 -0.043505 -0.056618 0.466246 0.183324 0.194365 -0.054137 0.130863 0.125185 -0.069865 0.475132 0.059857 0.504029 0.213801 0.086020 0.039666 0.613059 -0.202015 0.418831 -0.810561 0.118564 0.366557 0.035951 -0.313598 -0.636199 -0.286355 0.304655 -0.099899 -0.505349 0.637884 -0.272802 0.202638 0.341696 0.438177 -0.045663 0.128615 -0.249445 -0.023393 -0.156592 0.305595 0.341102 0.079656 0.163142 -0.176906 -0.451561 -0.538182 -0.250003 -0.460012 0.021626 -0.450843 -0.046848 -0.237563 0.399105 -0.273716 0.514850 0.314744 0.347400 -0.403142 0.025597 -0.402449 -0.116072 -0.417903 -0.067575 -0.454293 0.059665 0.636829 0.261051 0.054817 0.259660 -0.201900 0.205220 0.199275 -0.291077 0.151616 -0.451412 -0.287919
sent_71 -0.007418 0.260949 -0.160236 0.081671 0.225139 0.951968 0.268941 -0.445947 0.075016 -0.135889 -0.557901 0.517895 0.125565 -0.000182 0.707804 0.418722 0.028151 0.357263 -0.634792 -0.596893 0.069272 -0.378080 -0.587232 0.107521 0.231472 0.471569 0.433333 0.301687 -0.526086 -0.129531 0.030369 0.409125 0.488661 -0.654800 0.063769 -0.293563 0.005923 0.641997 0.846928 0.476266 0.183125 -0.292372 -0.514473 0.016711 -0.075559 -0.256351 -0.087518 0.562578 -0.091023 0.606849 -0.712296 -0.458178 0.151658 0.426657 -0.009176 -0.138776 0.343411 0.036455 -0.000701 0.582605 -0.795174 -0.230936 0.245689 0.080575 0.529885 0.217798 0.199787 -0.287360 -0.264156 -0.615450 0.204321 -0.401251 -0.444576 0.122902 0.192559 0.422179 -0.271044 -0.187480 -0.201140 -0.306074 -0.518873 -0.562304 -0.085464 -0.395237 -0.239252 0.167467 -0.001038 0.302540 -0.904085 -0.114452 0.105267 0.330092 0.037686 0.501719 -0.507034 -0.080513 0.029310 0.232000 -0.392931 -0.019528
sent_72 0.361730 -0.579130 -0.263522 -0.779275 0.127158 -0.102202 0.249225 0.210487 -0.226944 0.147873 -0.961701 0.015237 0.047420 -0.705813 -0.274672 -0.363692 -0.173335 -0.479923 -0.622890 -0.346991 -0.630983 -0.547509 -0.405716 0.566257 0.141420 -0.792468 -0.118083 0.121364 0.097513 0.642823 0.399025 -0.117673 -0.117029 0.124552 0.326252 -0.278207 0.341556 -0.222762 0.249810 0.212169 0.384863 0.265525 0.480698 -0.228995 0.234950 -0.124755 -0.543164 -0.529479 0.409583 -0.486301 -0.323212 0.208328 -0.212865 0.790698 -0.103457 -0.457722 0.573729 -0.501953 0.122275 0.381846 0.227494 -0.480464 0.172880 -0.909320 -0.321989 0.398632 0.720814 0.436045 -0.082363 0.206006 -0.173289 -0.186056 -0.567907 -0.136770 -0.293735 -0.248969 -0.478480 0.436284 -0.521345 -0.067065 0.065733 -0.912557 -0.463528 -0.586962 0.299974 -0.144032 -0.251938 -1.169667 0.043849 0.409394 -0.225085 0.794272 -0.050677 0.406032 -0.086783 0.523436 0.568565 0.561078 0.037932 0.322358
sent_73 -0.282823 -0.193937 -0.104384 -1.229864 -0.071183 0.691270 -0.252193 -0.188144 0.101213 -0.298069 -0.066763 -0.710178 0.428208 -1.445903 0.183969 -0.020988 0.243410 -0.079704 -0.401706 0.342865 -0.266381 -0.467030 -0.687158 0.853217 0.374259 -0.741005 0.232393 0.281661 0.026494 0.418236 0.050461 0.328259 0.572368 0.848635 0.685734 0.212295 -0.413383 -0.121519 0.161838 -0.001311 0.445805 -0.007377 -0.606187 -0.531709 -0.550009 -0.000313 -0.230372 0.439498 0.780846 -0.365146 -0.015811 -0.755867 0.380040 1.170950 -0.002984 -1.287739 0.117795 0.112481 0.530537 -0.259343 -0.028274 -0.977079 -0.462062 -0.577291 0.458284 0.167866 0.579404 -0.117553 0.511937 0.305528 0.751279 -0.657154 -0.520918 0.471008 -0.001667 0.034012 -0.658505 -0.483270 -0.532492 0.355136 -0.936909 -0.548351 -0.419235 -0.565012 0.675903 -0.523095 -0.199491 -0.576964 -0.011606 0.734902 -0.322331 -0.527610 0.155818 0.589233 0.196584 -0.211407 0.478964 0.402950 -0.135589 -0.173477
sent_74 0.044992 -0.348994 0.064231 -0.250271 0.256085 -0.085397 0.203857 0.071661 0.391009 0.003269 -0.388164 0.055950 0.294142 -0.046414 0.138522 -0.013350 -0.620702 -0.559340 -0.432481 -0.368686 -0.300062 0.155860 -0.352514 0.548407 0.256763 -0.202804 -0.036446 -0.025349 -0.863827 0.973989 0.018513 0.440748 0.224964 -0.210077 0.859346 -0.033123 0.374837 -0.320484 0.289147 0.364764 0.858092 0.054511 0.235034 -0.571691 -0.179695 0.004681 0.031552 -0.195292 -0.539339 0.244284 0.078071 -0.194242 -0.358299 0.228391 0.122532 -0.072015 0.306919 -0.298469 0.343922 0.199646 0.301246 -0.072902 0.072000 -0.115675 -0.298054 -0.046117 -0.154919 0.193640 -0.121160 0.010693 -0.130428 0.133896 -0.379587 -0.513641 -0.127156 0.147282 -0.516668 0.060300 -0.359542 -0.246043 -0.147938 -0.751155 -0.839134 -0.221737 0.171276 0.227232 -0.106527 -0.301529 -0.351056 -0.280317 -0.007322 0.137451 -0.311367 -0.428733 -0.011952 0.768365 -0.262026 0.553390 0.047315 0.120667
sent_75 0.088318 -0.216389 -0.443911 -0.285509 -0.115022 0.564094 -0.064876 -0.057489 0.491791 -0.046819 -0.866935 0.174223 0.013759 -0.503039 -0.270083 0.416832 0.194418 0.461419 -0.911251 -0.096646 -0.189476 -0.905594 -0.774719 0.607721 0.336432 -0.442538 -0.217648 0.177930 0.801086 -0.418294 -0.309519 -0.375695 -0.145178 -0.144835 0.487027 -0.541337 0.421833 -0.231980 -0.004990 0.606113 0.484157 -0.513026 -0.301222 -0.184177 0.446614 -0.092320 0.569726 0.679657 0.110538 -0.427499 -0.206530 -0.146150 0.120944 -0.500383 0.761492 -0.415366 0.817549 -0.737651 0.123071 -0.142152 0.269092 -0.550116 -0.259885 -0.163788 0.408511 -0.263214 0.140425 -0.856280 -0.144592 0.299435 0.283439 0.075961 0.259376 0.526053 -0.696545 0.793043 -0.082351 -0.255861 0.452681 0.142043 -0.281363 -0.386743 -0.247559 -0.227301 0.311043 -0.367348 0.884299 -0.335368 -0.397506 -0.529061 0.037831 -0.170986 0.315708 0.286613 -0.419969 0.382170 0.794389 -0.078296 -0.816001 -0.043813
sent_76 -0.209975 0.212462 0.072578 -0.693734 0.402967 -0.014980 -0.201474 -0.573826 -0.131694 0.193915 -0.381981 0.198181 -0.185398 -0.392687 0.478814 -0.272069 -0.575103 -0.527795 -0.245199 0.189616 0.002352 -0.280366 -0.745289 0.445917 -0.404340 0.534485 -0.737776 0.078492 -0.437410 0.847320 -0.184160 -0.219043 -0.067447 0.071006 0.711021 0.063755 0.510194 -0.345306 -0.290935 0.668068 -0.019218 -0.379313 0.109054 -0.218590 0.397697 -0.208596 0.224639 0.192147 -0.365143 -0.728857 0.475375 -0.033250 0.192749 0.507873 -0.584192 0.016095 0.808116 0.240646 0.623147 0.273231 0.302155 -0.555131 -0.263848 -0.179030 0.072941 0.413668 0.388537 0.493995 -0.392688 -0.005658 -0.303843 0.006607 -0.376501 0.344723 -0.055654 0.050069 -0.555903 -0.176692 -0.186451 -0.202762 -0.548383 -1.038139 -0.179422 0.021172 0.196219 -0.266852 0.453418 -0.653913 0.269529 0.118411 -0.048845 0.295697 0.011228 0.464035 -0.221391 -0.257520 0.011594 0.360320 -0.149721 0.049727
sent_77 0.346316 0.342678 0.150617 -0.588265 -0.000898 -1.037009 0.101803 -0.072690 0.535335 0.466517 -0.557696 -0.292054 0.716536 -0.340465 -0.166214 0.593718 -0.389588 -0.260465 -0.145483 -0.117392 -0.302078 -0.415677 0.048884 0.519761 0.060999 0.131724 -0.016597 0.126261 -0.779022 1.098984 -0.398368 0.333817 0.734282 0.230174 0.090971 -0.557393 0.346202 -0.686282 0.044646 0.145508 -0.006675 0.058216 0.315685 -0.823310 0.575580 0.087359 -0.101012 -0.140795 -0.444470 0.114773 0.115403 -0.214478 -0.240446 -0.167609 -0.361062 0.027450 0.223895 0.546127 0.650650 -0.179775 -0.119941 -0.457994 -0.246066 -0.254987 0.132117 -0.490456 0.344537 0.257711 -0.572253 -0.041572 0.152827 -0.275378 -0.205282 -0.695676 0.311653 0.035199 -0.258360 -0.409428 -0.433415 0.006445 -0.784755 -0.978515 -0.374536 -0.319287 0.189802 -0.477098 0.294305 -0.132305 -0.543918 0.406303 0.703134 -0.395319 0.127867 0.104571 0.352696 -0.308913 -0.508619 0.068038 0.279194 0.312040
sent_78 0.260338 -0.264292 -0.046171 0.027102 -0.174697 0.404958 0.082105 0.058212 -0.006635 -0.606003 0.000291 -0.181229 -0.019631 -0.082885 0.097892 0.421125 0.063840 -0.033677 -0.360549 0.689013 -0.383284 0.150919 -0.292984 -0.091224 -0.464631 0.141403 -0.226060 -0.265845 0.046282 0.161468 -0.003156 -0.381696 0.246780 -0.119476 -0.037053 -0.243651 0.004096 -0.125392 0.150789 0.222890 0.174969 -0.253770 -0.029709 -0.414981 0.145921 0.332089 -0.254656 0.140859 -0.267188 0.441869 0.437729 -0.127756 0.176618 0.333979 -0.349335 -0.297672 0.241034 -0.413395 -0.378385 0.203018 -0.096882 0.048548 -0.135690 0.351149 0.318264 0.033842 0.373682 -0.226377 -0.337573 -0.257575 -0.306278 -0.163525 -0.130546 0.256374 -0.076593 -0.028014 -0.063880 -0.041472 0.130868 0.023489 -0.305547 -0.480794 -0.304368 -0.206602 -0.038754 -0.308204 0.139405 -0.106985 -0.055836 0.048020 -0.016125 -0.124281 0.261781 -0.000933 0.027015 -0.046271 -0.128125 -0.120861 0.057992 0.201148
sent_79 -0.113002 -0.041245 -0.740610 -0.210745 -0.434331 -0.071651 0.550759 -0.039133 0.250107 0.098647 -0.386960 0.182120 -0.026605 -0.881279 -0.424615 -0.050751 -0.401359 0.497423 -0.217988 0.219301 -0.750136 0.212655 -0.855830 0.290812 -0.124380 0.044093 -0.002097 0.127483 0.136691 0.830647 -0.074257 -0.379256 0.331746 0.043460 0.369908 -0.226294 -0.090636 0.381184 -0.117450 0.046357 0.670492 -0.481255 -0.534965 0.136405 -0.155990 0.414274 -0.175004 -0.714721 0.542749 -0.454279 0.459313 -0.548756 -0.033532 0.019008 -0.425235 -0.572141 0.170128 -0.841953 0.190311 0.931093 -0.881219 -0.252860 -0.311833 0.003464 0.593677 -0.806485 1.009222 -0.714974 0.000959 -0.437985 0.760846 -0.845104 0.083251 0.115347 0.082496 0.038447 -0.069820 -0.757862 -0.221954 -0.370640 -0.839524 -0.598589 -0.349236 -0.571228 0.471104 0.190568 0.088034 -0.090852 -0.291804 0.052168 0.175725 0.409341 -0.069951 0.698128 0.084682 -0.387689 0.169923 -0.398800 -0.502364 0.422054
sent_80 0.257660 0.199311 0.127575 -0.425948 -0.230478 -0.202907 -0.618604 0.067944 0.659060 -0.071752 -0.307051 -0.299559 -0.017731 -0.445387 -0.052014 0.179212 -0.484261 -0.453903 -0.863343 0.279020 -0.232527 -0.482180 -0.108803 0.709097 0.246462 -0.038491 -0.398624 -0.220274 -0.345491 0.605163 -0.359716 -0.098476 0.456798 -0.388773 0.337118 -0.228399 0.547175 -0.271323 0.157091 0.767636 -0.124920 0.384240 0.194249 -0.218155 0.081236 0.384262 0.724074 -0.420281 -0.517337 -0.190460 -0.246190 0.050918 -0.003479 0.103945 0.400475 -0.036305 0.594881 -0.401892 0.298561 0.599475 0.384718 -0.480940 0.289182 -0.150865 0.510730 -0.449409 -0.128235 -1.164124 -0.744483 -0.307062 -0.195402 -0.521794 0.119334 0.385083 -0.193886 -0.326767 0.388838 -0.328284 0.313555 -0.120560 -0.807167 -0.924984 0.147045 0.121942 0.054945 0.523266 0.066054 -0.046118 -0.243924 0.086557 -0.406071 -0.149233 -0.058077 -0.051840 0.143574 -0.094616 0.315347 0.354821 0.154037 0.112222
sent_81 0.041069 0.139015 0.896553 -1.369812 0.286415 0.496652 -0.017772 -0.352976 0.683577 -0.928340 0.377462 0.210886 -0.559475 -0.709342 -0.434137 0.850464 -0.954085 -0.126567 -0.448761 0.022827 0.281503 0.444009 -0.652101 0.865800 -0.132580 -0.155108 0.085000 0.359509 0.213196 0.149150 0.413844 -0.038707 0.427105 0.643533 0.521230 -0.221996 -0.180409 -0.174402 0.459047 0.350052 0.521989 0.323952 0.497669 -0.090196 0.167931 0.351871 -0.580071 0.452876 0.351476 -0.130029 0.120324 -0.062090 0.049878 0.355712 0.322371 -0.197210 0.688331 -0.437880 -0.300827 0.036759 -0.175556 -0.544252 0.344677 -0.053882 0.449581 0.378011 -0.260341 0.754474 -0.027922 -0.081852 0.593536 0.119627 -0.177080 0.398730 -0.370558 0.005507 0.278942 0.253736 0.299353 -0.172463 0.080431 -0.052531 -0.270841 -0.443186 -0.172648 -0.792608 0.342831 0.339390 -0.633506 -0.551328 0.276225 -0.054076 0.148241 -0.068064 -0.748647 -0.316338 0.428460 0.214146 0.176521 -0.110350
sent_82 0.692438 -0.048315 -0.014805 -0.267560 -0.228359 0.100958 0.153421 -0.154907 -0.257207 -0.062526 -0.147027 -0.121324 -0.319878 -0.612094 -0.131710 -0.123611 -0.365791 -0.504570 0.089174 -0.369693 -0.064950 -0.146193 0.008168 0.582679 0.333619 0.227079 -0.277241 -0.187941 0.154570 0.961220 -0.313736 0.002202 0.073334 0.051802 0.619822 0.089918 0.003949 0.027192 0.128500 -0.314368 0.262414 0.277254 -0.080606 -0.165682 -0.115884 -0.433178 0.304303 0.159287 0.226555 0.340943 -0.158137 0.005457 0.342255 -0.205911 0.575753 -0.689259 0.873537 -0.349972 -0.572080 0.210088 0.291904 -0.455954 0.244651 -0.048350 0.378155 0.033919 0.549430 -0.303925 -0.084485 -0.026553 0.155458 0.495406 0.043183 0.129014 -0.013362 -0.086922 0.436055 -0.340052 0.348767 0.022998 -0.084275 0.051002 -0.054110 -0.342214 0.063020 0.086956 0.330117 0.134870 -0.109368 -0.234451 -0.716925 -0.080588 0.510574 0.409201 -0.200471 0.302301 0.039824 0.437329 0.146929 -0.248604
sent_83 0.629703 -0.085858 -0.072754 -0.023547 -0.025647 -0.042246 0.181193 0.272116 0.311879 -0.063630 -0.087921 -0.187759 -0.616689 0.277363 -0.205448 0.074562 -0.171506 -0.220520 -1.190216 0.319584 0.198894 -0.064739 -0.619244 0.636300 0.465461 -0.292739 -0.520252 0.975127 -0.442046 1.002717 0.122001 0.045221 -0.167731 -0.808356 -0.033551 -0.018540 -0.019167 -0.083238 -0.651587 0.451034 0.004629 -0.133868 -0.159634 -0.278327 0.453766 0.887660 0.220064 -0.059598 0.492595 -0.305332 0.623504 0.055016 -0.167483 -0.004950 -0.007609 0.163957 1.264523 -0.738979 -0.034981 0.830887 -0.019997 -0.378751 0.136485 0.057364 -0.118587 -0.404630 0.053645 0.148337 -0.288226 -0.293344 0.261624 -0.527287 -0.362605 0.512734 -0.002432 -0.232949 0.854101 -0.931308 -0.465588 -0.446946 -0.637797 -0.433006 -0.631054 -0.433722 -0.755230 -0.250887 0.059784 0.053706 -1.043112 -1.154609 -0.019743 0.229059 0.818032 0.532872 0.036720 0.246612 -0.282250 0.107121 -0.135422 0.127575
sent_84 0.125388 0.158509 -0.002592 -1.376332 0.248498 0.566800 -0.205356 0.126552 0.812580 -0.211803 -0.610372 -0.234750 -0.562778 -0.347969 -0.271227 0.223543 -0.241631 0.214754 -0.114379 -0.487378 -0.487230 -0.174653 -0.669671 0.577769 0.432600 0.305133 0.510714 0.077552 0.452176 0.613312 0.077253 0.408559 -0.290590 1.403499 -0.030978 -0.299156 -0.264881 0.281668 0.544957 -0.675142 0.175256 -0.355516 0.588725 0.049857 -0.347753 0.017729 -0.153957 -0.560568 -0.175401 0.045563 -0.393197 -0.503093 -0.398253 -0.221796 0.264346 -0.085194 0.091107 -0.684346 0.688175 0.214642 0.360552 0.059884 0.500546 -0.235664 0.592462 -0.327830 0.260232 -0.207394 0.212110 1.071878 -0.019579 -0.619043 -0.411913 0.300543 -0.092655 0.695314 -0.207150 -0.529137 0.165048 0.541584 -0.438791 0.023356 -0.250259 0.161789 -0.454148 -0.302271 -0.018289 -0.346981 -0.697579 -0.377321 0.492244 0.210781 1.017587 0.636972 0.165368 0.321655 0.007053 0.136584 0.017879 0.024559
sent_85 0.475963 0.207163 -0.281594 -0.377599 -0.047603 0.001870 0.478998 -0.631721 0.896329 0.034060 -0.003800 -0.179158 -0.288813 -0.399152 -0.103058 0.391335 -0.142675 0.228084 0.100848 -0.341539 -0.201224 -0.485222 -0.200145 0.640174 0.401956 -0.205042 -0.057600 0.186529 0.159139 0.767558 0.615346 0.136773 0.373515 0.814957 0.396161 -0.391538 0.035081 -0.710363 0.310517 0.233815 0.240773 0.081049 -0.125364 -0.326047 0.102391 -0.234273 -0.397231 -0.181680 -0.793202 -0.425003 0.175394 -0.180708 0.264178 0.394288 0.627134 0.506866 0.248880 -0.059063 -0.058862 0.104421 0.213115 -0.457642 -0.095223 -0.728413 -0.074881 -0.085151 -0.193148 0.247047 0.150860 0.321237 -0.021071 -0.062445 -0.065502 0.313385 -0.255387 -0.593796 0.006686 -0.242274 -0.135420 0.302231 -0.653503 -0.160177 -0.147863 0.104699 0.210940 0.013704 -0.046679 0.025997 -0.474445 -0.580204 0.103966 0.622890 -0.175445 0.358938 -0.259976 0.036244 -0.602039 0.445810 -0.582688 0.148445
sent_86 0.277523 0.010651 0.164648 -0.299576 0.193455 0.073457 0.176937 -0.142108 -0.013032 -0.148804 -0.580365 -0.533869 -0.082348 -0.422217 -0.514167 0.164761 -0.298784 0.104871 0.004831 -0.653906 -0.110953 -0.377676 -0.597588 0.035630 0.572276 0.090046 -0.319880 0.206917 -0.492744 0.406341 0.864098 0.317442 0.035554 -0.012243 0.558111 -0.037780 -0.276561 0.126066 0.359445 0.445332 -0.044835 -0.029673 0.127131 0.158550 -0.202995 0.277286 -0.625460 -0.288724 -0.166394 0.045897 0.157106 -0.589358 -0.270228 0.488570 -0.690555 -0.230455 0.315005 -0.126331 0.489942 0.249946 -0.257223 -0.452718 -0.321825 0.141969 -0.029913 -0.295313 0.503912 -0.630950 0.091006 -0.211581 0.519813 -0.459936 -0.431055 0.356572 -0.208720 -0.358889 -0.123053 -0.588880 -0.566003 0.264135 -0.519462 -0.384709 -0.265894 -0.947931 0.674277 -0.551792 -0.426995 -0.622518 -0.611253 -0.052745 -0.185611 -0.011203 -0.576260 0.309678 -0.309575 0.171300 0.203431 0.089636 -0.364364 0.969955
sent_87 0.242896 -0.412930 -0.146636 -0.568174 0.206128 0.341444 -0.043007 0.235579 -0.096060 -0.542076 -0.760666 -0.257841 -0.429562 -0.149646 -0.347667 0.315946 -0.697010 0.490874 -0.404513 -0.468584 -0.923345 -0.219283 -0.299640 1.147554 -0.115490 -0.073337 -0.116867 -0.077112 -0.007779 0.873720 0.397743 0.058735 -0.337143 0.053271 -0.047444 0.470067 -0.238767 0.720268 -0.276744 -0.097503 -0.202343 -0.199212 0.674806 0.354786 -0.194461 -0.399087 -0.478949 -0.121834 0.126133 0.547563 -0.446263 0.611635 -0.144225 0.075783 0.038281 -0.103090 0.706266 -0.168581 -0.350024 0.065230 0.475320 0.103698 0.171428 0.279973 -0.002720 -0.066141 0.055993 0.033470 -0.599999 0.513662 -0.081913 0.765395 -0.425287 0.715640 0.295806 0.085613 0.367730 0.021066 0.522929 0.297080 0.226817 0.794725 -0.204131 -0.739970 0.194418 -0.725488 -0.126299 -0.359574 -0.739388 -0.245648 -0.251478 -0.309638 0.730920 0.874134 -0.780002 0.020746 0.577424 -0.023599 -0.150701 -0.005372
sent_88 -0.368537 0.270550 -0.035258 -0.257294 0.119679 -0.079409 0.234087 0.041843 0.119992 0.163542 -0.901479 0.017521 -0.466313 -0.050754 0.151580 0.030329 -0.854036 0.469576 -0.439444 -0.221354 -0.831563 -0.124738 0.457206 0.841214 0.466728 0.167000 -0.021593 0.860242 -0.055381 1.153514 0.206031 -0.130615 -0.388707 0.294020 -0.395716 0.462764 -0.100721 0.353826 -0.261177 -0.232063 0.410276 -0.194862 0.023221 -0.554958 -0.302632 -0.205958 -0.386248 0.010142 -0.137237 0.156519 -0.431424 -0.093910 -0.198480 -0.150039 -0.061210 -0.204054 0.154960 0.176498 -0.167221 0.048374 0.054343 -0.186985 0.313934 0.053582 0.071507 -0.710200 0.024432 0.252014 -0.381777 -0.001697 -0.123530 0.290178 -0.430684 0.041137 -0.018251 0.771962 0.244880 -0.287204 0.336386 0.554352 0.364135 0.662523 -0.235849 -0.815586 -0.406065 -0.636235 -0.057399 -0.057444 -0.459526 -0.256985 -0.032871 0.052327 0.519505 0.843423 0.058334 0.000539 0.853858 0.688483 -0.951991 0.277609
sent_89 -0.178316 -0.163055 -0.156698 -0.301648 -0.146687 0.057334 -0.244521 0.060846 0.356066 0.065761 -0.308870 0.258015 -0.271055 -0.636961 0.157299 0.287478 -0.417405 0.115887 0.085907 -0.324562 -0.963903 0.021198 0.054008 0.435751 0.159645 0.231827 -0.264345 0.330955 -0.259220 0.585401 -0.368672 -0.452750 0.274000 0.309213 -0.046848 -0.385506 1.001894 0.553626 0.182847 -0.284320 0.943479 0.527289 -0.319534 -0.042802 -0.265263 0.235540 -0.652332 0.138435 0.024726 -0.033379 -0.109606 0.095381 0.410360 -0.171194 0.300606 -0.571128 0.817111 -0.212917 0.063808 0.337293 0.094659 -0.559295 0.022073 0.012648 0.819329 -0.522512 0.711255 -0.518575 -0.950479 -0.606541 0.031810 -0.067753 0.023589 0.280200 0.040367 0.336340 -0.185682 -0.377020 0.091857 0.095603 -0.647563 -0.584343 -0.565144 -0.378142 -0.051806 -0.520970 0.352188 -0.311766 -0.989647 0.080425 0.114561 0.730047 -0.179651 0.218086 0.086673 0.157918 0.447837 0.197902 0.536659 0.104239
sent_90 0.365560 -0.310822 0.063001 -0.119328 -0.076260 0.174937 -0.204998 -0.294117 0.500041 0.108235 0.113443 0.538996 0.061308 -0.557676 -0.401382 0.062530 -0.456462 -0.188905 -0.104718 -0.365625 -0.087343 0.191841 -0.473351 0.709805 -0.042219 -0.382643 -0.004381 0.786451 -0.233294 0.466509 0.222418 0.357943 0.392048 0.260275 0.131033 -0.404612 0.385255 -0.448400 -0.400372 0.266652 0.356673 0.278443 0.028930 -0.178221 -0.246496 -0.003420 0.337892 0.021954 -0.214619 -0.277306 0.115629 -0.181081 -0.312376 0.391928 -0.068958 -0.041344 0.397830 -0.390360 0.008673 0.175223 -0.224174 -0.203812 0.300017 0.042607 -0.060362 -0.186924 0.086674 0.266975 -0.196300 -0.319837 -0.169331 0.033008 -0.112876 -0.169548 -0.210424 -0.084443 0.456468 -0.033970 0.489851 0.209638 0.035139 -0.050553 -0.322321 -0.491145 -0.166092 -0.119963 0.328644 -0.075354 -0.204724 -0.219941 -0.226631 -0.403683 -0.060730 0.394288 -0.085286 0.168889 0.093758 0.033305 -0.056551 -0.010997
sent_91 0.363795 -0.079847 -0.241159 -0.032550 0.111736 -0.350411 0.424611 0.333521 -0.368151 0.042315 -0.013935 0.084713 -0.278654 -0.020900 -0.089412 -0.584035 -0.812252 0.353847 -0.484697 -0.349235 -0.420525 -0.014663 -0.402582 0.194239 -0.274369 0.153640 0.250400 0.798332 -0.470419 0.359105 -0.116914 -0.077538 -0.043044 0.233488 0.085121 -0.117667 0.033774 0.011403 -0.206575 -0.419757 0.390976 -0.228439 0.699955 -0.298471 -0.376946 -0.482613 -0.006284 0.275986 0.135727 -0.404404 -0.691188 0.112642 0.903143 -0.023253 0.604930 -0.108024 0.466779 -0.288321 -0.070728 0.358471 0.070912 -0.007676 -0.400951 -0.339665 0.199436 -0.521122 0.538078 -0.187888 0.352217 0.508274 -0.482930 0.409479 0.099519 0.360433 -0.378828 -0.121121 -0.016496 -0.264831 0.421765 -0.051970 -0.465919 -0.409128 -0.221484 -0.004754 0.452859 -0.543761 -0.012179 -0.504102 -0.429646 -0.040544 1.085973 -0.590020 0.254383 0.576440 0.057306 0.139159 -0.245759 -0.247501 0.441398 0.232167
sent_92 -1.185930 0.478365 0.230739 -0.364807 0.711093 -0.117552 0.041869 -0.262762 1.203305 1.088893 0.081231 -0.598788 0.057670 0.132921 0.870421 0.796808 -0.654762 -0.729402 -0.349841 -0.002541 -0.825085 -0.082526 -1.227744 0.468858 -0.209344 0.121765 1.127792 0.230363 0.301055 -0.998434 0.264409 1.106346 0.358419 -0.302101 1.048567 0.036930 1.020125 0.652220 0.655026 -0.289993 0.094740 0.088382 0.008014 -0.484880 -0.306553 0.837302 0.398968 0.169027 -0.386004 -0.720638 0.949788 -0.496458 -0.609035 1.026576 -0.012970 -0.930941 0.260741 0.877357 0.255705 -1.360996 -0.244986 0.921370 0.127972 0.649911 -0.108130 1.117007 -0.399811 1.245483 0.306686 -0.565508 0.421024 -0.060281 1.024652 0.581208 -0.674414 0.481523 0.263125 1.109698 0.353782 0.075849 0.258865 0.390474 -0.834265 0.997205 -0.150935 0.403369 0.507556 1.642205 -0.681481 -0.487078 0.543280 -0.018500 0.470767 0.221605 -0.496518 -0.101096 -0.775831 -0.336777 -0.307909 0.659756
sent_93 0.104956 -0.514957 -0.169815 -0.795672 0.285145 0.275180 -0.023420 -0.503212 0.451454 -0.190169 -0.885158 0.479826 0.200336 0.422450 -0.168860 -0.114562 0.052619 -0.706563 -0.242589 -0.849896 0.308642 -1.068073 -0.562984 0.107175 0.419954 -0.269928 0.435771 0.075351 -0.054772 0.430060 0.424091 0.038287 0.546185 0.643841 0.486463 -0.683307 0.422894 -0.442817 0.251284 0.415743 0.417756 0.526749 -0.642714 0.013879 0.067036 -0.022484 -0.308514 -0.321367 -0.859410 -0.305742 -0.107138 -0.656072 0.200167 0.027350 -0.026893 0.058905 0.257896 -0.254824 0.869155 0.144596 0.138826 -0.356496 0.293843 -0.157150 0.112009 0.831168 -0.395926 -0.260875 -0.233543 -0.770252 0.151215 0.377358 -0.362227 0.260636 -0.350352 0.171463 -0.451894 -0.319164 -0.514385 0.139573 0.000561 -0.509682 -0.286566 -0.142542 -0.292202 -0.068784 0.516525 -0.101442 -0.352462 -0.289113 0.948831 -0.154069 -0.342775 -0.107253 -0.310730 0.277626 -0.163199 -0.337930 -0.524986 0.729016
sent_94 0.418121 -0.165006 -0.213620 -0.279780 -0.070827 -0.260739 0.747597 0.186932 0.633621 -0.084617 0.028280 -0.095784 0.308630 -0.573043 -0.361619 0.925974 -0.002669 0.691540 -0.142330 -0.314733 0.161340 -0.698855 -0.264381 0.819338 0.209044 -0.332465 -0.164571 0.760579 -0.490575 0.356247 -0.656631 -0.361378 0.769349 0.529703 -0.317095 0.274553 -0.182396 -0.721630 0.505854 -0.245534 -0.090435 0.467135 0.232546 -0.700383 -0.051280 -0.061275 0.643733 0.821620 0.017833 0.419146 -0.548022 -0.352273 -0.009673 0.265328 -0.192607 -0.784052 0.632795 -0.249121 0.057229 0.349700 0.366950 0.558282 0.067125 -0.102992 0.993160 0.006039 -0.086627 0.091515 -0.534704 -0.210690 0.038072 -0.723043 0.288670 -0.066928 -0.290012 -0.342280 0.221465 -0.095438 0.065319 -0.712771 -0.657144 -0.648495 -1.109495 -0.543200 -0.350716 0.221487 0.127416 -0.398108 -0.960702 0.650682 -0.022265 0.223791 0.179447 0.579743 0.159843 -0.749955 0.100194 0.156240 -0.026577 0.635725
sent_95 -0.149035 -0.091633 0.113361 -0.668443 0.130165 -0.290901 0.377166 -0.365202 0.179885 0.244123 -0.649398 0.316762 -0.624100 -0.250731 -0.242355 -0.440577 -0.344664 0.047909 -0.074648 -0.245461 -0.200531 -0.213431 -0.338072 0.132501 0.446477 -0.333268 0.334885 -0.022570 -0.371203 0.760691 -0.033643 -0.190428 0.765251 -0.057073 0.131204 -0.007877 0.716793 -0.278855 -0.135497 0.195310 -0.139175 0.732498 0.417269 -0.473866 -0.026115 0.101828 -0.087548 -0.839504 -0.448284 -0.422361 -0.203561 -0.065762 -0.264345 -0.089265 -0.041896 0.088213 0.359838 0.021272 0.244221 -0.020759 -0.214612 -0.279061 -0.394356 -0.337153 -0.054849 -0.308031 0.117178 -0.128319 0.093350 0.172222 0.506329 -0.462930 -0.605642 -0.090689 -0.288707 0.186698 0.073932 0.126345 -0.300548 -0.207096 0.558535 -0.046359 -0.060297 -0.716679 -0.295968 -0.231806 -0.001015 0.341620 -0.292725 -0.126356 0.089809 0.061692 -0.109653 0.520617 0.188353 -0.189187 0.158486 -0.318872 -0.631165 0.093917
sent_96 0.429834 -0.453449 -0.232238 -0.700959 0.072725 -0.082695 -0.064350 -0.250446 0.579589 -0.851745 -0.446920 0.061549 0.026738 -0.111033 0.015924 -0.272500 -0.657769 -0.083202 0.006106 -0.078301 -0.827711 -0.179915 -0.484767 1.314213 0.409590 -0.349628 0.287097 0.312682 -0.334543 0.543769 -0.367566 0.487033 -0.088109 0.883026 0.256770 0.140255 -0.068119 -0.062528 -0.231941 -0.159950 0.145696 0.194420 0.748020 0.295152 0.066216 -0.656769 0.153995 -0.498617 -0.821765 -0.192865 -0.084754 -0.524903 -0.330217 0.018978 -0.787420 -1.277678 -0.132286 -0.257614 -0.363213 0.196862 0.028412 0.089549 0.002031 -0.693734 0.420662 -0.236450 0.264035 -0.137242 0.247922 -0.453458 -0.096025 0.169926 -0.622570 0.048908 -0.208320 0.171705 0.205230 -0.261605 0.042421 0.096618 0.050405 0.180660 -0.869398 -0.347783 0.099910 -0.241672 -0.012192 -0.214399 -0.952176 -0.415051 -0.747370 0.537498 0.176217 0.748408 -0.140874 0.240067 0.623714 0.508325 -0.242465 -0.583972
sent_97 0.173906 0.008999 -0.464502 -0.969562 0.763788 0.210516 -0.432354 -0.244703 0.987848 0.184933 0.815210 -0.753071 -0.219675 -0.083846 0.723713 0.439426 -0.186952 0.248685 -0.910728 -0.279448 0.281904 -0.365276 0.158161 0.660803 0.306268 -0.096732 -0.019419 -0.060403 -0.542624 -0.258505 0.070164 0.559224 0.111163 0.766493 0.199013 -0.067613 0.070719 -0.331941 -0.316000 -0.304305 -0.107107 -0.051021 -0.545192 -0.480429 -0.842814 0.661017 0.509543 -0.043082 -0.654427 -0.321203 0.044407 -0.595034 -0.140700 0.568258 -0.849356 -0.145049 0.799107 0.094547 0.338502 0.005249 0.045257 -0.323716 -0.711610 0.679694 0.539505 -0.436242 -0.246458 -0.822202 0.008209 -0.576690 1.039255 0.189984 -0.085635 -0.364731 0.115636 0.452193 -0.291305 -0.116767 0.249341 -0.516597 -0.087034 -0.000588 -0.227660 -0.411875 0.565300 0.084936 0.370056 -0.661323 -0.368403 -0.554812 0.014071 -0.183546 -0.003934 0.489023 -0.011968 -0.562360 0.324201 0.536088 0.075312 -0.286688
sent_98 -0.520584 -0.217489 0.481744 -0.405959 -0.235371 0.163090 0.260409 -0.257740 0.653164 -0.359826 -0.409786 0.031511 -0.685467 -0.148279 0.031732 -0.152752 -1.155825 0.761118 -0.448118 -0.154166 -0.853782 -0.162166 0.257910 0.906985 0.012277 -0.012506 -0.106049 0.558209 0.129236 0.952830 0.495590 0.295956 0.168028 0.338951 -0.669997 0.151864 -0.136441 -0.238820 0.350524 -0.176036 0.033100 0.294338 0.162153 -0.524065 -0.436606 0.065141 0.311708 0.629809 -0.571659 -0.226593 0.146470 -0.238316 0.291947 -0.300020 0.253547 -0.264564 0.049835 -0.423917 -0.561033 0.177305 0.307233 -0.540505 1.275923 -0.133014 0.193499 -0.053758 0.045265 0.451476 -0.427518 0.467982 0.202233 0.031225 -0.161282 0.226050 0.156943 0.151509 -0.033422 -0.679548 -0.246932 0.964696 -0.109844 0.031983 -0.338581 -0.428085 -0.143379 -0.518819 0.061769 -0.222203 -0.745535 -0.443010 -0.223028 -0.232805 0.773216 0.258398 -0.093016 -0.021136 0.553227 0.259955 -0.285317 -0.221447
sent_99 0.398298 -0.096409 -0.603554 -0.591634 -0.159702 0.448804 -0.212756 0.236466 -0.082504 0.530734 -0.435193 0.039530 0.020198 0.250461 -0.879398 0.667614 0.094040 -0.385899 -0.304309 -0.243363 -0.116527 0.219826 -0.380593 0.657059 -0.062196 -0.714968 -0.554200 0.423956 -0.602780 0.579201 -0.492754 -0.330643 0.658800 -0.176698 0.420086 0.348344 0.003408 -0.314603 -0.671567 0.128919 0.393812 -0.174587 -0.032243 0.148719 -0.184550 -0.041280 -0.087756 -1.081691 0.501137 -0.120390 -0.373531 -0.202459 0.304382 0.892850 -0.226104 -0.569302 0.262272 -0.620372 0.343709 0.327302 0.186416 -0.262594 0.147491 -0.557947 0.049102 -0.556315 0.306417 0.058162 0.201728 -0.368755 0.033725 -0.130283 0.146580 0.684827 0.023555 -0.001699 0.001099 -0.030733 0.546536 0.461761 -1.091094 -0.196075 0.581283 -0.955841 0.250922 0.628235 0.714814 0.073954 -0.816132 0.277706 -0.200314 0.162853 -0.055040 -0.291262 -0.678047 -0.079170 0.372531 0.456664 -0.956696 0.692185
sent_100 -0.054360 0.167954 -0.418888 -0.446162 -1.164789 0.078551 0.825934 0.047517 0.756219 0.171855 -0.368512 -0.015996 -0.194939 -0.173429 -0.190278 0.517111 -0.481079 0.011218 -0.647154 0.220420 0.121905 -0.409932 0.081363 0.248192 0.182830 -0.037181 0.200496 0.226909 0.103437 0.386746 0.102459 -0.224747 -0.148429 -0.035992 0.233937 -0.905763 0.503852 -0.183493 0.710851 -0.214090 0.206771 -0.181504 -0.672257 0.545915 -1.076596 0.290690 0.183621 -0.994239 -0.077958 0.497604 -0.864190 -0.253051 0.611710 0.010945 -0.447351 -0.589214 1.332993 -0.137264 0.570122 0.472580 -0.215216 -0.832898 0.010457 -0.179175 -0.327924 -0.758063 0.310793 -0.814076 -1.039185 -0.274304 -0.377507 0.132108 0.453900 0.643614 0.070097 0.274295 0.275174 -0.909853 -0.209223 -0.319261 -0.708627 -0.205465 -0.445812 -0.919148 0.329658 0.787232 0.363414 -0.423067 0.103595 0.179548 0.068926 -0.135811 0.313752 0.748833 -0.311730 0.231022 0.077294 -0.195416 0.405431 0.710975
sent_101 0.206622 -0.177798 -0.352720 -0.437842 0.307703 0.031258 0.402979 0.467636 1.010849 -0.051264 -0.272800 -0.121910 -0.647825 -0.717476 -0.278827 -0.219619 -0.021319 0.171812 0.002318 0.388027 -0.231323 -0.668292 0.072159 0.623950 0.421208 0.044029 0.609617 0.767854 -0.315464 0.480174 0.053796 0.203124 0.246901 0.515790 0.219464 -0.114074 -0.173460 0.355375 -0.344387 0.199707 -0.232941 -0.135309 0.539248 -0.390284 0.868729 -0.407057 -0.555575 0.244934 -0.487967 -0.225192 0.236897 -0.250555 -0.446751 0.578329 0.574225 -0.282993 -0.081817 -0.200279 -0.102347 -0.097365 0.136875 0.130970 0.408544 0.105748 -0.227451 -0.060082 0.287888 -0.511636 0.556442 -0.664820 -0.039975 -0.089204 0.292009 0.517076 -0.062891 0.429399 0.245241 -0.442255 0.175571 0.506734 -0.465813 0.002721 -0.498634 -0.753663 -0.512525 0.073947 -0.333756 -0.373793 0.032278 0.232232 0.181904 -0.328138 0.266235 0.001519 -0.218075 -0.601822 -0.193140 0.252051 -0.407669 0.161218
sent_102 0.293041 -0.347700 0.540788 -0.803920 0.542504 0.254619 0.182026 0.383281 0.386953 -0.482239 -0.290963 -0.029338 -0.101517 -0.335093 -0.118023 -0.076903 -0.269155 0.337257 -0.798643 -0.013301 -0.561462 -0.023695 -0.822715 0.739886 0.388478 -0.346948 0.023988 -0.323250 -0.129685 0.368048 -0.036352 -0.419040 -0.234648 0.712735 0.612173 0.291685 -0.458802 0.210543 0.231005 0.184126 0.488615 -0.748213 -0.654708 0.209830 0.421127 -0.148375 -0.761036 -0.244291 -0.605384 -0.446642 -0.547042 -0.032900 -0.040111 0.239744 0.161238 -0.605751 0.402780 -0.720721 0.669247 -0.665961 0.107735 -0.846153 0.226789 -0.750904 0.098728 -0.105598 -0.280966 0.393583 0.064669 0.230016 0.038099 0.504141 -0.365019 -0.043141 -0.281213 -0.286078 -0.246081 -0.715500 -0.456704 -0.077486 -0.123036 0.185660 -0.198456 0.129531 0.389356 0.175749 0.425380 -0.561936 -0.590818 -0.393663 -0.336416 -0.092298 0.644794 0.245675 -0.304207 0.379943 0.241178 0.113197 -0.619761 0.336211
sent_103 -0.239578 -0.162524 0.283269 -0.366040 0.290692 0.107202 0.191770 -0.145711 -0.173156 -0.166868 -1.724288 0.106117 -0.165488 -0.715496 -0.313992 0.111475 -1.306858 0.220823 -0.694929 0.438161 -0.951609 -0.015529 0.530746 0.808870 -0.335878 0.091440 0.077131 0.619473 0.098748 1.143289 0.194298 -0.077212 -0.464071 0.183594 0.404366 0.655955 0.043783 0.813542 0.350404 -0.065270 0.725718 -0.204806 -0.170850 -0.495383 0.183458 -0.215873 0.206257 -0.592585 -0.173324 -0.294369 -0.802580 0.077010 -0.146890 0.146431 -0.341724 -0.443386 0.420518 -0.300247 0.658418 0.033225 0.152686 -0.745578 0.199336 -0.284399 -0.112631 -0.074793 0.107659 0.246726 -0.827456 -0.239998 -0.039514 0.424362 -0.508559 0.436877 -0.017504 -0.100456 -0.085615 -0.725144 -0.216455 -0.122473 -0.033955 -0.453553 -0.073484 -0.254749 -0.547939 -1.347648 -1.350486 -0.927412 -0.180338 -0.695467 -0.258924 0.054566 0.011107 0.344695 -0.373451 0.193884 0.372929 0.892843 -1.045557 -0.010136
